// Neural Network File Format by Kyle Julian, Stanford 2016
6,11,3,20,
11,20,20,20,20,20,3,
0,
-3.4028235e+38,-3.4028235e+38,-3.4028235e+38,-3.4028235e+38,-3.4028235e+38,-3.4028235e+38,-3.4028235e+38,-3.4028235e+38,-3.4028235e+38,-3.4028235e+38,-3.4028235e+38,
3.4028235e+38,3.4028235e+38,3.4028235e+38,3.4028235e+38,3.4028235e+38,3.4028235e+38,3.4028235e+38,3.4028235e+38,3.4028235e+38,3.4028235e+38,3.4028235e+38,
0.0,0.0,0.0,0.0,0.0,0.0,0.0,0.0,0.0,0.0,0.0,0.0,
1.0,1.0,1.0,1.0,1.0,1.0,1.0,1.0,1.0,1.0,1.0,1.0,
-9.82005e-01,4.59012e-01,-8.88098e-02,2.27122e-02,-9.28148e-01,-4.20900e-01,3.27856e-02,2.08903e-01,-1.22365e-02,1.78330e-04,4.24092e-02,
5.91629e-01,8.95833e-01,3.78747e-02,-5.10543e-02,1.40445e+00,-2.94104e+00,3.56879e-01,3.00393e-01,4.12805e-02,2.19054e-02,-1.17347e-01,
-3.70161e-02,7.86076e-01,6.74431e-01,1.41718e-01,1.28852e+00,9.36791e-02,4.70244e-02,-1.78578e-01,3.40163e-02,1.69710e-02,-1.39150e-01,
-2.19752e-01,4.04277e-01,3.88343e-02,-2.93774e-01,-1.52254e+00,-1.53129e+00,9.08614e-02,-2.01674e-01,1.58215e-02,9.13092e-03,2.60672e-02,
-2.76620e-01,7.63316e-01,1.84457e-01,-3.09581e-01,7.62260e-01,2.34110e-01,4.21724e-01,1.18702e-01,4.08010e-03,-3.62242e-02,-4.48841e-02,
5.62103e-01,2.64301e-01,2.80889e-01,-4.43658e-02,-1.37175e+00,-1.32722e+00,2.46351e-01,-4.00146e-02,-1.68409e-03,1.87411e-02,-6.16717e-03,
2.82165e-01,4.38207e-01,-8.76798e-02,2.79699e-01,8.80660e-01,-7.22864e-01,-1.37530e-01,-2.41038e-01,-2.23008e-02,-2.00210e-02,3.70582e-03,
2.78336e-01,-1.56319e-01,3.36425e-03,-4.12175e-01,-2.35796e+00,5.15128e-01,4.33987e-01,1.53902e-01,2.73286e-02,-1.09992e-02,-2.70415e-02,
3.37102e-01,6.32358e-01,-4.40414e-02,6.80949e-02,-2.23720e+00,2.90648e-01,4.30062e-01,-1.71831e-01,8.65817e-03,8.78682e-04,1.06276e-02,
-1.64684e-01,-2.38758e+00,1.17936e-01,-2.78601e-01,3.31384e-01,-2.72999e-01,-1.71809e-01,-1.75923e-01,-2.97605e-01,6.86191e-02,8.52778e-03,
-3.28495e-01,-6.17936e-01,2.36536e-01,-1.58012e-02,1.10294e+00,-9.32118e-01,3.86820e-01,2.08276e-01,-3.97083e-02,-8.04996e-03,1.28873e-01,
-2.74082e-01,-8.89335e-01,3.78918e-02,-2.06453e-01,7.62428e-01,-7.98956e-01,3.38696e-01,3.38927e-01,-1.12742e-01,-6.25881e-03,6.41013e-03,
2.24058e-01,1.43903e-01,-2.04319e-01,-4.60715e-01,-4.21099e-01,-2.02282e+00,8.72915e-02,3.31991e-01,9.32783e-03,-3.43267e-02,-8.33636e-02,
7.29590e-02,5.15957e-01,-2.02962e-01,1.55300e-01,5.23276e-01,-4.25079e-01,-2.73031e-01,1.09602e-01,2.50644e-02,-1.82291e-03,8.67532e-02,
-1.23006e+00,-7.89499e-01,-4.18583e-01,-6.05447e-02,8.07952e-01,-8.11718e-01,-3.03071e-02,-1.78445e-01,-1.26405e-01,-4.88923e-04,7.22059e-02,
8.59091e-02,5.31680e-01,-3.22185e-01,3.03201e-02,5.61791e-01,2.05631e+00,-4.03973e-01,-1.50860e-01,-3.38953e-02,-6.14747e-02,-8.99790e-02,
6.44003e-01,1.39557e-01,7.73483e-01,-2.29391e-01,-2.31970e-01,1.12602e+00,-2.27494e-01,-4.29951e-01,3.37898e-02,4.36487e-02,-7.92244e-02,
6.33001e-01,5.08824e-01,-1.82167e-01,3.65408e-01,-5.79932e-01,1.27797e+00,-3.52545e-01,-1.95857e-01,4.98838e-03,3.80805e-02,-3.70747e-02,
5.58001e-01,4.36386e-01,-2.91449e-02,-3.72705e-01,3.45678e+00,5.98441e-01,2.22151e-01,-8.77554e-02,2.23786e-02,2.45868e-02,-5.40041e-02,
2.37115e-01,-1.86130e-01,8.58736e-02,-2.64065e-01,1.88758e+00,1.79281e+00,-3.50151e-01,-1.58196e-01,6.17033e-02,-4.45450e-03,5.10779e-02,
-1.94612e-01,
8.68793e-03,
2.67734e-01,
1.57393e-01,
2.99597e-01,
-5.77583e-02,
4.64606e-01,
4.19240e-01,
1.07006e-02,
-1.68478e-01,
5.27651e-01,
-3.52883e-01,
4.97056e-01,
9.87969e-02,
-3.23401e-01,
3.47897e-01,
3.00079e-01,
3.75676e-01,
1.20030e-01,
4.50289e-01,
4.50419e-01,1.81517e-01,-4.70574e-01,6.91447e-02,-2.16865e-01,2.21132e-02,-5.03979e-01,5.27958e-01,5.24401e-01,3.97185e-01,-1.38697e-01,-3.30135e-02,9.10496e-02,1.31718e+00,8.13007e-01,-4.19799e-01,2.37267e-01,-1.34429e-01,-3.20691e-01,-1.87710e-01,
-7.84240e-02,-1.04332e-02,2.22436e-02,-9.60637e-02,2.39712e-01,3.21022e-01,4.09488e-01,-9.73532e-02,-6.60142e-02,-1.33336e+00,-1.02724e-01,-1.24626e+00,-8.89254e-02,1.33953e-01,1.95174e-01,5.60754e-01,-1.90110e-03,1.65634e-01,4.83793e-01,1.28879e-01,
-6.51051e-01,2.00879e-01,3.89542e-01,-9.05152e-01,1.48968e-02,-1.85294e-02,-4.79824e-02,-4.04130e-01,-5.56652e-01,1.96546e-01,6.01631e-02,1.40093e-01,-4.35417e-01,5.74325e-01,-1.08750e+00,-3.14873e-01,1.33550e-01,-3.98530e-01,6.17184e-01,3.34798e-01,
2.27802e-03,2.79448e-01,7.14312e-01,-1.67569e-01,7.16763e-02,-2.21416e-01,2.44238e-01,-1.42980e-01,1.57148e-01,-8.08181e-01,3.86755e-01,6.61399e-01,-4.53116e-01,2.11778e-02,-1.75566e-01,2.15007e-01,3.63537e-01,2.78754e-01,-5.60031e-01,-9.12151e-02,
-5.40502e-03,1.49282e-01,-3.24964e-01,-1.68681e-01,-4.47709e-01,1.86082e-01,3.77711e-01,5.67340e-01,2.75927e-01,2.77333e-01,5.54351e-01,-5.42722e-01,2.71887e-03,-2.01325e-01,3.93197e-01,-2.45082e-01,4.67077e-01,2.15691e-01,-1.22199e-01,4.08665e-01,
-2.16549e-01,-1.48411e-01,-5.95266e-01,2.82480e-01,1.32707e-02,-4.23403e-02,5.53486e-01,3.79897e-01,4.76312e-01,5.92186e-01,-5.42723e-02,9.09594e-01,-2.08999e-02,-2.48964e-01,1.25693e+00,-2.07903e-01,1.57630e-01,2.88308e-01,-4.65028e-01,-2.22588e-01,
-3.71718e-01,-5.71119e-01,1.69629e-01,5.14045e-01,1.25701e-01,-2.21847e-01,-2.28106e-01,-4.42685e-02,6.55941e-01,1.97522e-02,1.03276e-01,-2.23060e-02,-1.48351e-01,-2.87671e-01,1.65148e-01,-1.76314e-02,2.85676e-01,3.79805e-01,-1.20428e+00,-9.83644e-01,
-2.16507e-01,-1.92725e-01,-9.07233e-02,3.48284e-01,3.01677e-01,-2.62488e-01,3.18431e-01,-2.48809e-01,5.21382e-01,4.02951e-01,-3.39867e-01,9.56354e-01,-1.31564e-01,2.29150e-01,5.70505e-01,2.60480e-01,1.57879e-01,3.14059e-01,-1.98592e-01,-3.89111e-01,
-1.07759e-01,9.09330e-01,-1.16731e-01,-1.96987e-02,7.17369e-02,-1.95257e-03,2.37419e-01,-6.95461e-01,-1.03162e+00,3.48505e-01,5.50928e-01,-4.81466e-01,-3.29067e-01,1.25630e-01,-1.13451e+00,5.25428e-02,-1.72030e-01,-5.59814e-01,5.43903e-01,3.02471e-01,
9.35277e-01,2.82850e-01,7.44988e-01,-1.76858e-01,-4.10435e-01,1.69131e-01,-1.40858e-01,-3.58143e-01,-4.42107e-01,7.34536e-01,-4.07045e-01,-4.85320e-02,3.42020e-01,-2.90849e-01,3.81405e-01,-3.03499e-01,1.14995e-01,-3.01343e-01,4.19666e-02,5.11667e-01,
-1.43114e-01,4.81947e-01,-3.12805e-02,5.51639e-01,2.53276e-01,5.26314e-01,4.37696e-01,-8.38992e-02,-1.09347e-01,3.79010e-01,-2.69599e-01,5.70273e-01,2.57212e-01,4.81124e-01,-1.40011e-03,3.67438e-02,-2.35974e-02,1.74259e-01,-4.91472e-01,-1.27772e-01,
6.59854e-01,-4.53641e-01,1.44383e-01,1.48469e-01,6.57182e-01,2.99664e-01,1.07617e-01,-1.40150e-01,-3.78203e-01,7.07973e-02,1.98782e-01,-6.00048e-01,1.43243e-02,-9.30988e-01,8.05551e-01,4.79218e-01,2.37847e-02,7.17153e-03,2.47485e-01,5.15898e-01,
-2.74435e-01,-1.46557e-01,-2.34806e-01,-1.78453e-01,-2.80377e-02,4.02954e-01,3.76961e-01,1.57072e-02,7.74230e-01,1.13491e-01,3.19261e-01,6.95770e-01,2.87031e-01,2.87233e-01,1.54310e-01,4.47268e-01,5.76924e-01,-1.32200e-01,-4.27931e-01,-1.28272e-01,
3.07376e-01,1.88807e-01,-4.01538e-01,7.58710e-02,-2.49125e-02,5.02474e-01,-1.01906e+00,1.89673e-01,3.19242e-01,-1.24219e+00,2.62163e-01,4.55911e-01,2.19845e-01,-8.47050e-01,2.66981e-01,-5.82519e-02,1.96223e-01,-6.11902e-01,1.83679e-01,-4.44974e-01,
-2.52140e-01,-9.11966e-01,-3.03381e-01,-3.02894e-01,-1.51818e-02,6.87582e-02,-3.07265e-01,5.36389e-01,-1.55938e-01,-7.41552e-01,-3.34625e-01,-2.10076e-01,-3.90628e-01,7.46411e-01,1.05666e+00,5.46024e-01,3.71732e-01,5.17429e-01,2.22371e-01,5.65871e-01,
4.06207e-01,9.68887e-02,2.86134e-01,2.71879e-01,-7.13678e-01,-4.86607e-01,-4.08493e-02,6.19143e-01,2.89074e-01,1.29183e+00,-1.74558e-01,8.84530e-01,-4.02076e-01,2.31259e-01,-2.11372e-01,4.09073e-01,9.76056e-02,3.15260e-01,8.18003e-03,-1.89450e-01,
5.10580e-01,-1.04303e-01,-7.40066e-01,6.08464e-02,-1.84874e-01,3.97416e-01,2.18752e-01,1.75500e-02,-1.80404e-01,5.60133e-01,-2.29689e-01,1.66197e-01,2.38843e-01,9.76748e-02,1.77450e+00,2.66153e-01,-4.58948e-01,-2.01057e-01,1.55588e-01,2.26343e-01,
2.86790e-02,-1.88328e-02,9.56599e-02,-2.31593e-01,1.23628e-02,1.12236e-01,4.50436e-01,-7.97540e-03,2.11747e-01,-1.24721e-01,-5.41924e-01,-2.67888e-01,5.16402e-02,-1.01482e-01,-4.22660e-01,1.30865e-01,2.91943e-01,1.80002e-01,1.96472e-01,-1.28878e-01,
-2.64070e-01,4.77133e-01,1.38373e-01,-3.91558e-02,1.92042e-01,2.98286e-02,-1.85898e-01,2.25773e-01,-8.20716e-02,9.68820e-01,-5.65887e-01,9.10454e-01,6.68841e-01,-5.34167e-01,-1.11654e-01,2.09295e-01,2.36375e-01,-6.65488e-02,1.04391e-01,8.67675e-02,
-1.58044e+00,1.94818e-01,5.46519e-01,-7.50220e-02,-2.81205e-01,-4.49705e-01,3.19345e-01,5.30544e-01,-2.58179e-01,1.19811e+00,6.79994e-01,4.88437e-01,3.57699e-01,4.48051e-01,-1.07268e+00,3.88948e-01,-1.37140e-01,1.99212e-01,1.07978e-01,-1.46475e-01,
-4.78855e-01,
-1.88829e-01,
-3.39760e-01,
-3.25713e-01,
-5.62424e-02,
4.01433e-01,
-3.94088e-01,
7.40587e-02,
1.98432e-01,
3.47464e-01,
-1.65369e-01,
3.66331e-01,
3.17005e-01,
1.35202e-01,
-3.17934e-01,
2.82199e-01,
2.93769e-01,
8.35548e-03,
3.65660e-01,
-1.13239e-01,
-2.66584e-02,5.32374e-01,4.30986e-01,5.05252e-01,3.53648e-01,-6.31533e-01,-2.06728e-01,1.99030e-01,2.75597e-01,-7.58801e-02,-5.81903e-01,1.14925e-01,-7.32208e-01,2.54004e-01,5.24181e-01,-7.81665e-01,-1.29543e-01,1.00727e-01,-6.40563e-02,-6.92533e-01,
5.69482e-01,8.26713e-01,1.32713e+00,7.51875e-01,8.19659e-01,-2.42988e-01,-2.86002e-01,-6.70944e-01,1.07061e+00,3.65409e-01,-2.81969e-01,8.19410e-02,1.48297e-01,-1.34424e-01,-3.13167e-01,-5.09744e-01,-4.15671e-01,1.35812e-01,1.15499e-02,2.28512e-02,
3.90752e-01,-8.08741e-02,5.08025e-01,-5.42763e-01,-6.26019e-01,-3.63355e-01,-1.47790e+00,2.38955e-01,-7.82349e-02,1.57799e-01,4.13149e-02,4.23215e-01,-3.65379e-01,6.69729e-01,3.86498e-01,2.98926e-01,6.10013e-02,3.44240e-01,5.33438e-01,-1.48177e-01,
7.33352e-01,-4.53625e-01,2.13022e-01,-7.15386e-02,-2.82421e-01,-2.79286e-01,7.78924e-03,-1.18687e+00,9.75706e-01,2.11880e-02,3.00500e-01,-2.36649e-01,-1.13274e-01,4.86195e-01,-1.26334e+00,-2.91736e-01,-6.87704e-02,-1.28105e-02,1.53357e-01,8.23091e-01,
1.18460e-01,2.92017e-01,5.41318e-01,1.27363e-01,7.98394e-01,4.50776e-01,-6.59480e-01,3.08654e-01,2.33721e-01,-6.15364e-02,-3.02999e-01,1.44450e-01,1.09928e-01,-4.77580e-01,2.27472e-01,1.04882e-02,3.36884e-02,-4.70707e-01,1.85293e-01,2.71444e-01,
-6.64355e-01,8.30138e-01,-9.59077e-02,-3.44213e-01,-2.98165e-01,-1.45912e-01,5.42219e-01,9.49299e-02,3.09857e-01,-3.48167e-02,-5.23782e-01,5.02855e-01,-2.76486e-01,-1.17345e-01,1.02040e+00,7.92539e-01,3.68918e-01,7.29799e-03,1.83502e-01,-9.49985e-02,
2.80383e-01,-7.01131e-02,-3.36633e-01,3.46790e-01,-1.16635e-01,3.70616e-01,9.21782e-01,3.88711e-01,2.39072e-01,1.72811e-01,4.36859e-01,2.65052e-02,2.67736e-01,7.64556e-02,-1.99578e-01,-5.22893e-01,-3.72906e-01,2.33791e-01,3.64709e-01,8.19910e-01,
-5.31977e-02,-1.87985e-02,1.55981e-01,4.10656e-02,8.64090e-02,-1.46985e-01,-2.87397e-01,-5.52647e-01,-3.80457e-01,3.10600e-02,-4.35472e-01,-4.23204e-01,1.22003e-02,3.04331e-01,4.20536e-01,-1.81032e-01,3.11315e-01,-2.88272e-01,9.28151e-02,-2.08662e-01,
-5.42310e-01,-3.52049e-01,-1.15583e+00,1.23485e-01,2.68316e-01,-1.57923e-01,4.07525e-01,-2.24524e-01,-1.11275e+00,1.93629e-01,5.57784e-01,1.30764e-01,3.90530e-01,5.36442e-01,1.51256e-01,-4.46287e-01,1.70985e-01,5.08271e-01,1.56188e-01,-4.69954e-01,
3.93769e-02,4.49668e-01,7.21667e-01,-1.89038e-01,-3.14340e-01,3.09308e-01,-1.13595e+00,9.56396e-02,8.11287e-01,4.30846e-01,2.87206e-01,-6.76440e-02,-1.36013e-01,-1.03066e-01,-1.27670e-01,8.64982e-01,1.35587e-01,4.01623e-01,3.01267e-01,7.65433e-01,
-3.10682e-01,-1.26096e-01,5.45026e-02,-3.85344e-01,4.54178e-02,1.41286e-01,-7.97477e-02,-8.70318e-02,-9.61646e-02,-4.57494e-02,1.08507e-01,-1.28692e-01,-1.59662e-01,-1.94306e-01,-3.64056e-02,5.05769e-02,2.49030e-01,-4.60848e-02,-3.15869e-01,1.09061e-02,
4.36099e-01,3.17355e-02,-4.56709e-01,-4.06174e-01,8.51292e-02,2.02849e-01,1.12070e+00,4.19871e-02,-8.78298e-01,5.69401e-01,4.13625e-01,-2.05126e-01,2.76615e-01,-5.51325e-01,-6.98427e-01,-7.04237e-01,-4.29458e-02,-1.99443e-02,1.24327e-01,-4.04074e-02,
-4.25541e-01,-6.43626e-01,-9.22076e-02,-3.82023e-01,1.15943e-03,3.08520e-01,1.14534e-01,1.98387e-01,-2.96200e-01,4.06103e-01,1.94332e-02,2.99611e-01,2.22196e-01,1.64618e-01,-2.82200e-01,1.54142e-01,-1.33602e-01,1.98550e-03,4.19215e-01,4.30168e-01,
-7.32351e-02,5.45643e-01,-5.37531e-01,-1.00603e-01,-5.77172e-01,-3.43990e-02,7.80250e-01,3.12185e-01,2.40410e-01,-4.36158e-01,2.11509e-01,-9.00677e-01,1.90947e-01,-4.84882e-01,-3.75136e-01,4.52720e-01,5.56651e-01,6.59373e-02,-2.78415e-01,1.48738e-01,
-4.95162e-01,-5.99730e-01,-7.72182e-02,-9.15509e-01,5.01093e-01,1.33019e-01,-7.30447e-01,-3.96564e-01,1.97153e-01,5.94413e-01,-1.42534e-01,2.93609e-01,-1.77721e-01,-5.01928e-01,5.54419e-01,1.95690e-01,4.40937e-01,1.11817e-01,1.81908e-01,-2.10737e-01,
-3.81538e-01,-2.65485e-01,3.55312e-01,-9.70604e-01,-1.19008e+00,-3.47893e-02,6.49999e-03,4.66799e-01,1.62075e-02,6.37103e-02,3.69525e-01,1.67909e-01,-2.74115e-01,-1.32711e-01,-1.52990e-01,-6.58565e-01,-2.07763e-01,-1.14404e+00,-3.69218e-01,-1.15804e+00,
9.29322e-01,5.81558e-01,1.71714e-01,7.60825e-01,1.73715e-01,-5.64390e-02,3.22491e-01,-1.50024e-01,2.09284e-01,-1.18104e-01,-5.62405e-02,-6.57470e-01,-2.81504e-01,-5.15273e-01,1.64635e-01,1.07773e-01,-1.98001e-01,2.05146e-01,2.67567e-01,-1.14101e-01,
4.41066e-01,-6.37722e-01,-2.64471e-01,-1.01918e-01,2.23749e-01,5.70640e-01,-1.05702e-01,-1.92118e-01,-6.14608e-01,-1.61271e-01,4.56611e-01,5.19204e-01,5.48075e-01,6.55366e-02,-2.73081e-01,-2.06897e-01,5.91254e-01,1.13968e-01,4.73689e-01,2.42534e-01,
4.32513e-02,4.34718e-01,4.72201e-01,-1.84863e-01,3.18860e-01,1.69300e-02,-7.72372e-01,-1.26094e-01,6.81541e-01,3.40850e-01,-3.68315e-01,2.86674e-01,-4.62547e-02,-4.50052e-02,8.19686e-01,1.09811e+00,3.64759e-01,2.91080e-01,2.16898e-01,-2.41144e-01,
-1.70833e+00,5.74573e-01,5.51042e-01,-3.43332e-01,-4.01005e-01,1.19664e-02,6.01997e-01,-2.75037e-01,1.27334e-01,3.76409e-01,-9.87194e-02,5.45569e-01,5.01667e-01,-4.06464e-01,6.08251e-01,8.75323e-02,3.86094e-01,-2.47023e-01,-1.84072e-01,-1.93350e-01,
-1.07854e+00,
-1.65700e-01,
-6.17191e-02,
1.70838e-02,
-6.95264e-02,
1.36022e-01,
4.35312e-02,
-2.28097e-01,
1.12658e-01,
4.86437e-02,
-2.04629e-01,
4.68095e-01,
3.98328e-01,
3.91871e-03,
-2.36212e-01,
6.96082e-02,
-2.20581e-01,
1.62386e-01,
-1.30174e-02,
4.75557e-03,
5.60900e-01,-5.35537e-02,-5.43277e-01,1.05493e-01,3.79149e-01,-3.67904e-01,2.96409e-01,1.93988e-02,3.06250e-01,3.58350e-01,-3.69430e-01,5.54747e-01,2.24204e-01,1.64464e+00,5.88993e-02,6.66468e-01,7.33178e-01,1.23679e-01,7.28000e-02,2.85121e-01,
-3.89897e-01,-3.85588e-01,-3.27541e-01,1.15008e+00,1.67504e-01,-5.97795e-01,-8.04287e-02,1.78575e-01,1.98248e-01,2.30564e-02,6.26622e-02,-2.30342e-01,2.06054e-02,-7.30680e-01,-1.37673e-01,3.55664e-01,-2.78967e-01,3.63950e-01,-5.91473e-01,-1.12804e+00,
1.05975e+00,-1.62650e-01,6.52959e-01,2.84746e-01,-2.62502e-01,7.34884e-01,-1.43780e-01,-5.98376e-01,2.15426e-01,1.17795e-01,2.61717e-01,-7.25744e-01,-1.13845e-01,8.03251e-01,-2.18282e-01,-1.81844e+00,7.16886e-01,-1.37452e-01,5.28740e-01,1.39741e-01,
-7.27947e-01,-5.67026e-01,-3.02437e-01,-7.41922e-03,3.52495e-02,6.07244e-01,-2.22733e-01,5.45892e-01,3.65476e-01,2.01064e-01,2.09414e-01,3.04715e-01,7.39152e-02,-9.60191e-01,7.74562e-01,-5.86089e-01,-1.18874e+00,7.62650e-02,3.33762e-01,4.20664e-01,
-1.46013e+00,3.57846e-01,4.70244e-02,3.62210e-01,-1.68107e+00,2.81011e-01,2.20962e-01,3.88130e-01,5.52002e-01,-1.22149e-03,3.94842e-02,2.54312e-01,8.95880e-02,2.89263e-01,-3.05274e-01,4.38973e-01,2.86523e-01,-1.59754e-01,-1.00633e-01,7.50754e-01,
-3.81839e-01,-1.40358e-01,2.66109e-02,-3.54558e-01,-2.92526e-01,-3.60944e-01,-1.68511e-01,-1.52105e-01,3.47635e-01,-4.02223e-01,5.79306e-03,-9.49463e-02,3.50901e-01,-2.39859e-01,-3.32851e-02,2.85139e-01,2.27689e-01,-2.27926e-01,1.11030e-01,-3.54440e-01,
3.18547e-01,2.97707e-01,-1.16039e-01,-5.28663e-01,-3.75693e-01,-3.31657e-02,-7.00643e-01,-4.38845e-01,-4.25953e-01,-1.78353e-02,-3.20645e-01,-1.55420e-01,-1.28575e+00,2.48207e-01,1.88556e-02,2.17634e-01,-2.47200e-01,-1.89513e-01,2.57999e-01,1.00839e-01,
1.32517e+00,-2.37268e-01,2.82501e-01,3.95104e-01,3.44551e-01,3.09297e-01,-2.75507e-01,-5.64391e-01,1.22162e-01,3.93848e-01,1.43853e-01,-4.70046e-02,-4.70279e-01,-2.65952e-01,5.78775e-02,-1.24877e+00,9.37442e-01,8.63085e-03,2.53553e-01,3.42752e-01,
4.76553e-02,2.35825e-01,4.30971e-01,4.73868e-01,-3.03261e-02,-4.94180e-02,-3.20470e-01,3.95755e-01,-4.95665e-01,-2.60417e-01,6.02761e-02,-4.56090e-01,-1.32521e-01,-2.81096e-01,-4.87741e-01,3.64015e-01,-3.05701e-01,-7.96025e-02,1.13791e-01,-1.05468e+00,
-5.44193e-01,-3.05911e-01,1.08922e+00,8.43272e-01,-7.89109e-02,-2.38309e-01,7.68464e-03,4.38376e-01,2.75050e-01,2.86774e-01,-5.06102e-02,1.70799e-01,-9.78256e-03,-5.82227e-01,2.88784e-01,-7.85513e-01,-6.75154e-01,9.12574e-02,2.44566e-01,-4.48676e-01,
-3.53793e-01,-3.71757e-01,4.52597e-01,-2.20289e-01,1.35122e-01,-1.14839e+00,1.33772e-01,-8.61400e-01,-7.14655e-01,2.55214e-01,-2.27244e-01,1.32104e-01,5.18322e-02,5.94027e-01,-4.56265e-01,-3.93966e-01,1.01904e-01,-1.38730e-01,-1.12440e-01,-7.52105e-01,
-5.50506e-01,6.24295e-01,4.26424e-01,4.78201e-01,3.83108e-01,4.38479e-01,-2.14000e-01,1.18024e-01,-1.36522e-01,3.75754e-01,3.10717e-01,1.13842e-01,3.21415e-01,-1.10999e+00,2.80728e-01,1.54960e-01,-7.85053e-01,-1.10864e-01,5.56383e-01,-3.29601e-01,
-7.31891e-01,7.62416e-01,1.39781e-01,-9.29251e-02,-1.54297e-01,-5.87427e-01,5.94420e-01,4.82748e-01,-1.23852e-01,4.25458e-01,3.43979e-01,1.18805e-01,-2.07339e-01,7.18883e-01,-4.22397e-01,9.18420e-01,3.55227e-01,3.98880e-01,6.45190e-02,-8.24770e-01,
6.55768e-01,-1.50138e-01,-2.85425e-01,5.70413e-01,5.23886e-01,5.52998e-01,2.84094e-01,-1.76837e-01,-3.39247e-01,-1.62714e-02,3.73029e-01,-2.57386e-01,1.98498e-03,-2.77632e-01,-3.43292e-01,-9.96431e-01,9.57211e-01,1.87310e-01,4.20581e-01,4.10131e-01,
-4.89978e-01,-8.81038e-01,-1.52783e-01,-1.00532e+00,-2.89930e-01,-2.75772e-01,4.18162e-01,8.06318e-02,5.85067e-01,-2.09090e-01,-2.72128e-01,4.77406e-01,5.82480e-01,4.06541e-01,3.21279e-02,1.81744e-01,-7.93006e-01,7.22075e-01,-3.27390e-01,-8.29096e-01,
-1.63598e-01,2.09741e-02,7.55048e-02,-1.86371e-01,2.93612e-01,-1.25953e-01,-1.85420e-01,7.78216e-03,-3.59305e-02,-2.50499e-01,-2.58442e-01,2.37424e-01,-3.84958e-01,-1.95575e-01,-3.60541e-02,-6.08174e-02,-3.15025e-01,-5.10591e-02,-1.41764e-01,-3.03087e-01,
1.49972e+00,5.76455e-01,1.92740e-01,5.76325e-01,2.43603e-01,-1.24423e-01,6.46029e-02,1.05839e-01,-6.00261e-01,-5.74837e-01,3.46268e-01,-6.95326e-01,-5.57254e-01,-1.10830e+00,-4.59336e-02,4.46805e-01,-1.98859e-01,-7.58396e-01,-2.37518e-01,-1.62212e-01,
-9.77813e-01,4.84513e-03,6.61175e-01,2.26387e-01,-6.26467e-01,-1.67837e-01,8.39217e-02,3.92618e-02,3.22083e-01,3.60568e-01,-3.48762e-01,-8.43829e-03,4.39157e-01,-1.11579e+00,-5.84348e-02,5.49346e-01,-9.79258e-01,4.88814e-01,-4.31323e-01,-1.38390e+00,
-6.68312e-02,4.59738e-01,3.94734e-01,-1.68142e-01,-2.44923e-02,-1.87563e-01,-1.91240e-01,-2.27395e-01,5.63077e-01,-2.09460e-01,-3.94607e-02,-1.27380e-01,-1.35920e-02,5.85355e-04,2.60585e-01,3.61811e-01,-8.86413e-01,-1.60709e-01,3.48827e-01,-7.53125e-02,
-1.04672e+00,-3.14537e-01,-4.19218e-01,-7.20231e-01,2.78660e-01,-8.56491e-02,3.38596e-01,8.71805e-02,1.96721e-02,7.81691e-02,2.19145e-01,7.05638e-01,-5.68709e-02,5.11958e-01,6.89687e-02,4.22556e-01,-1.67035e-01,5.37158e-01,-4.21320e-01,-1.38501e-01,
4.46821e-02,
-3.89377e-03,
2.16663e-01,
4.80688e-02,
-3.30026e-01,
3.52289e-01,
-2.82312e-01,
1.01754e-01,
1.13350e-01,
1.03516e-01,
3.17316e-01,
1.33925e-01,
-1.06469e-01,
1.74441e-01,
-6.89613e-02,
-1.74496e-01,
-4.74070e-02,
3.57683e-02,
-3.17678e-01,
5.96540e-01,
2.54118e-01,-1.04868e+00,8.13816e-01,-6.72366e-01,2.86402e-01,3.71202e-02,-1.95906e+00,3.51876e-01,2.60038e-01,2.37559e-01,7.15563e-01,1.28351e-01,3.34182e-01,5.86516e-01,-1.43890e-02,-3.28088e-01,2.38574e-01,-3.08252e-01,-3.32737e-01,-3.11659e-01,
1.64893e-02,8.04347e-01,-1.86928e-01,4.62680e-01,-9.41856e-01,-2.57900e-01,2.01642e+00,-2.64814e-01,7.03820e-01,4.06238e-01,-6.25096e-01,3.33373e-01,-1.13378e-01,-3.93014e-01,2.61136e-01,3.09103e-01,2.20330e-01,3.94769e-01,2.31067e-01,-1.51431e-01,
-2.60041e-01,5.75482e-02,-2.74457e-01,-9.10953e-04,1.53296e-01,3.36147e-01,-1.29431e-01,-4.21764e-01,1.51142e-02,-2.11926e-02,-2.95329e-01,3.84347e-01,1.41602e-01,-5.98879e-01,4.45034e-02,-1.00034e-01,-2.10900e-01,-8.21563e-02,-5.70377e-02,-3.15544e-01,
5.24018e-02,6.80834e-01,6.16980e-03,-6.68843e-01,-1.02278e+00,-2.01203e-01,1.54659e+00,1.20220e-02,1.76521e-01,3.88441e-01,-4.27693e-02,5.53174e-01,9.64962e-01,-1.70466e-01,2.56048e-01,-2.37123e-02,2.86862e-01,-5.89246e-01,-3.52362e-01,-2.81371e-01,
6.70040e-01,-6.69966e-02,-6.14354e-01,7.42292e-02,1.31004e+00,1.25541e-01,-2.11827e-01,1.76723e-01,-7.21407e-01,-5.95206e-02,4.75958e-01,-1.65255e-01,2.15751e-01,1.51575e-01,6.22177e-01,2.80109e-01,-1.00418e-01,7.68624e-01,-6.22965e-01,2.63101e-01,
1.20666e-01,1.08999e+00,4.46974e-01,7.92892e-01,-2.69545e-01,-2.60809e-01,1.40879e+00,5.04107e-01,1.37426e-01,1.57315e-02,-5.66566e-01,-1.10026e-01,-2.80061e-01,-1.32212e-01,-2.33704e-01,2.34916e-02,-6.59834e-01,4.70697e-01,6.60641e-01,-5.16212e-02,
2.82808e-01,-4.90023e-01,4.55179e-01,-3.00201e-01,-1.20729e-01,-7.00441e-02,-1.23501e+00,1.72625e-02,-3.01200e-01,4.47982e-01,-4.49162e-02,-7.74473e-02,-6.19608e-01,6.36249e-01,-3.87421e-01,1.95475e-01,1.31965e-01,1.59219e-01,-5.25322e-01,2.65937e-01,
4.14275e-02,3.64376e-03,2.59006e-01,-1.06241e-01,4.13467e-01,-3.74989e-01,-1.21330e+00,2.80941e-01,-1.34390e-01,5.97381e-03,4.53443e-01,1.99361e-02,-1.80664e-01,3.95626e-01,-2.85832e-02,1.42321e-01,-2.62539e-01,6.99899e-02,4.59025e-02,-6.71779e-02,
-1.70164e-01,6.23650e-01,-4.48396e-01,1.16521e+00,-3.21242e-01,1.31823e-02,-1.00198e-01,1.70636e-01,-4.05750e-01,3.64634e-01,-1.16640e+00,-9.67729e-02,-4.70137e-01,-7.24777e-02,2.73085e-01,-2.78144e-01,-7.15728e-01,3.30151e-01,9.01316e-01,2.25574e-01,
-1.34581e-01,2.65135e-01,3.28835e-01,-1.64094e-01,2.43774e-01,2.19187e-01,1.28330e-01,-3.87571e-01,2.45279e-03,1.90413e-02,-3.01954e-01,-2.49549e-03,2.11421e-01,4.34876e-02,2.04635e-01,1.94978e-01,1.52112e-01,3.58974e-01,3.75429e-01,-2.14568e-01,
1.61246e-02,-4.74497e-01,-6.95435e-02,-3.00958e-01,1.27794e+00,7.66224e-02,-1.62724e+00,4.16966e-01,-3.72317e-01,3.78660e-02,1.98068e-01,6.77456e-02,-1.19317e-02,-2.76515e-03,-1.53827e-01,3.63671e-01,-1.46973e-02,1.02000e-01,-2.85523e-01,-2.91914e-01,
-4.13614e-01,1.07151e+00,6.63004e-01,7.51306e-03,-7.15688e-01,-3.58094e-02,1.96039e+00,1.01465e-01,6.16921e-01,3.87121e-01,-3.95384e-01,3.17357e-01,4.95304e-01,-1.30120e-01,9.15336e-01,2.91888e-01,-1.60435e-01,4.78730e-01,7.37888e-01,-3.50154e-01,
-1.93112e-01,-3.03183e-01,-8.59598e-02,-1.71435e-01,-1.28406e-01,2.37715e-02,9.85675e-02,-2.56933e-01,-2.47398e-01,-2.83178e-01,-6.81317e-02,-2.80840e-01,-2.22949e-01,-1.12772e-01,-1.30600e-01,3.78358e-01,3.40584e-01,2.38787e-01,2.72487e-01,1.53016e-01,
4.37531e-01,3.76691e-01,-7.17307e-01,3.91384e-02,1.37079e+00,-1.71820e-02,4.24715e-01,-6.97961e-01,1.34782e-03,2.41251e-01,3.74298e-01,-6.31865e-01,6.77332e-01,-6.16239e-01,8.95425e-01,3.12851e-01,1.29335e+00,9.84316e-01,-4.37950e-01,5.39226e-01,
3.88814e-01,-2.88211e-01,-3.39596e-02,-1.59308e-02,1.19589e+00,4.23603e-01,-2.92987e-01,6.13451e-01,-3.74163e-01,2.17226e-01,2.10748e-01,-1.19426e+00,2.22131e-01,-7.01800e-01,9.52328e-02,-2.22029e-01,-6.15049e-01,9.10888e-02,1.74349e-01,1.77982e-01,
3.84506e-01,4.05349e-02,9.48624e-01,2.37427e-01,1.69827e+00,-2.91163e-01,-1.70656e-01,2.43941e-01,3.78594e-01,-2.23971e-01,6.75077e-01,-3.38576e-01,8.30860e-02,-3.97218e-01,1.19702e-01,-1.37902e-01,4.05285e-01,-3.88803e-01,-2.33258e-01,-2.42607e-01,
-3.08050e-01,-8.04053e-02,1.12020e-02,-3.86451e-01,-1.48798e-01,-7.73123e-02,1.06424e+00,1.81622e-01,-1.09394e-01,-8.36610e-02,-5.37181e-02,-2.01111e-02,-1.80793e-01,-2.01542e-01,-3.68248e-01,1.98431e-01,4.25577e-01,-1.49772e-01,6.10941e-02,-1.72021e-01,
9.31080e-02,-6.20220e-01,6.89528e-01,-7.58469e-01,8.55998e-01,-5.75354e-03,-2.34958e-01,4.15169e-01,-2.01247e-01,-2.47563e-01,9.89694e-01,-5.06175e-01,7.22533e-01,-4.38058e-01,-3.58143e-02,-3.18119e-01,3.97681e-01,-3.52054e-01,-1.01384e-01,1.38507e-01,
-2.67897e-01,6.55510e-01,6.84228e-01,-7.32649e-02,-9.09819e-01,5.56516e-02,1.72758e+00,-1.80610e-01,6.76301e-01,3.19737e-01,3.52927e-01,5.65984e-01,7.32932e-01,-1.31262e-01,7.58149e-02,7.38805e-02,5.62793e-01,-5.17193e-02,3.83493e-01,3.97489e-01,
-2.80940e-01,-6.57519e-01,9.96762e-01,7.40052e-02,1.62423e-01,-2.13045e-01,-4.46588e-01,3.27455e-01,1.07241e-02,2.95624e-01,3.15733e-01,7.29934e-02,-3.16929e-01,8.48703e-01,-1.92232e+00,5.48218e-02,-7.03698e-01,-8.00153e-01,5.80793e-01,-3.97357e-01,
4.23214e-01,
1.52237e-01,
-3.50477e-01,
2.25421e-01,
5.86653e-01,
-1.34376e-02,
2.45098e-01,
-2.14152e-01,
4.02422e-01,
-7.52073e-02,
1.60789e-01,
-3.43825e-02,
-2.80832e-01,
2.57640e-01,
1.46384e-01,
-3.83920e-01,
-4.61326e-01,
-4.28955e-01,
-6.54407e-02,
1.43487e-01,
-3.03481e-01,6.31236e-01,2.73823e-01,2.08098e-01,-2.67367e-01,1.59968e-01,-4.28400e-01,-2.76153e-01,2.74442e-01,-4.05102e-01,-8.54992e-01,7.91673e-01,1.73691e-01,-2.17804e-01,-1.30510e+00,-1.33422e+00,1.70564e+00,-1.17896e+00,2.20827e-01,5.87944e-02,
-3.39653e-03,-7.85152e-02,4.51786e-01,-8.89073e-01,-8.98030e-01,6.54175e-01,4.35959e-01,5.62913e-01,5.00710e-01,-3.13027e-01,9.72522e-01,5.55950e-02,3.35547e-01,-1.78553e+00,4.55312e-01,8.20351e-01,-1.36395e-01,-2.26397e-01,-7.58467e-01,1.64423e+00,
1.00142e+00,-3.54487e-01,5.84977e-01,1.08426e+00,-1.09517e+00,-6.33958e-01,1.02178e-01,2.04482e-01,-1.75603e+00,-1.26049e-01,1.35226e+00,2.62519e-01,-2.88784e-01,-6.33830e-01,-6.89286e-01,-2.00779e+00,5.54225e-01,1.48366e+00,8.27718e-01,1.52307e+00,
5.99828e-01,
4.79793e-01,
1.25313e-01,
