// Neural Network File Format by Kyle Julian, Stanford 2016
6,11,3,20,
11,20,20,20,20,20,3,
0,
-3.4028235e+38,-3.4028235e+38,-3.4028235e+38,-3.4028235e+38,-3.4028235e+38,-3.4028235e+38,-3.4028235e+38,-3.4028235e+38,-3.4028235e+38,-3.4028235e+38,-3.4028235e+38,
3.4028235e+38,3.4028235e+38,3.4028235e+38,3.4028235e+38,3.4028235e+38,3.4028235e+38,3.4028235e+38,3.4028235e+38,3.4028235e+38,3.4028235e+38,3.4028235e+38,
0.0,0.0,0.0,0.0,0.0,0.0,0.0,0.0,0.0,0.0,0.0,0.0,
1.0,1.0,1.0,1.0,1.0,1.0,1.0,1.0,1.0,1.0,1.0,1.0,
-4.83832e-01,-5.98055e-01,-2.45252e-01,4.30967e-01,7.49235e-01,4.57623e-01,3.32916e-01,2.27351e-01,2.29113e-03,3.67389e-04,-4.63423e-03,
-4.14625e-01,6.52600e-01,-1.53288e-01,4.00510e-02,4.47895e-01,1.46210e+00,4.18077e-02,-4.02353e-02,1.59368e-02,-3.86684e-02,9.50584e-03,
-1.87639e-01,-3.05587e-02,4.33338e-02,-1.73789e-01,-1.72122e+00,-6.14959e-02,6.82718e-02,3.34825e-01,5.13635e-03,1.81300e-02,-2.09846e-02,
-1.51091e-01,-2.15703e-01,8.61100e-03,-1.98877e-01,-5.49496e-02,-1.63870e+00,-3.43087e-01,-2.08195e-01,2.14107e-02,2.53540e-02,2.48478e-02,
6.54176e-01,2.56159e-01,-6.17646e-02,-3.34946e-01,9.53286e-01,9.64754e-01,-3.05228e-01,-2.62313e-01,2.19818e-02,3.20913e-02,5.74371e-03,
-2.50408e-01,-1.06331e+00,7.70272e-01,3.82907e-01,-4.54065e-01,1.72638e+00,-1.64936e-01,2.85410e-01,-3.82857e-02,-1.37040e-02,2.56493e-02,
3.76593e-01,-9.72114e-01,3.14173e-01,1.06272e+00,-6.24588e-01,-1.04191e+00,2.85302e-02,5.29450e-02,-1.89817e-02,-4.13275e-03,1.78650e-02,
1.34585e+00,-1.03843e+00,4.53550e-01,2.40058e-01,3.70434e-01,-1.86789e-01,2.36061e-01,3.27075e-02,4.28524e-02,2.85595e-02,2.26980e-03,
-7.62981e-02,4.25359e-02,-4.59434e-01,1.14483e+00,-1.42608e+00,-1.09063e+00,2.48368e-01,3.12685e-01,-1.41004e-02,1.19099e-02,8.70593e-03,
-5.30149e-01,-7.46366e-01,-3.29638e-01,8.31304e-01,-4.20214e-01,-9.35761e-01,1.97546e-01,-2.37677e-01,-3.96971e-02,-3.24156e-02,-1.10687e-02,
-3.17509e-01,3.33807e-01,-1.26903e-01,1.91847e-02,-3.93667e+00,2.39252e-01,-1.98834e-01,1.11675e-01,1.57566e-02,4.63903e-03,1.31332e-02,
1.47100e+00,-3.78333e-01,2.18206e-01,-1.35141e-01,-6.63297e-01,1.14219e+00,4.06063e-01,-1.17866e-01,1.27499e-02,9.01724e-03,6.02347e-03,
-2.66997e-01,-1.95240e+00,-9.51788e-02,-4.39625e-01,6.64312e-01,-5.89543e-01,-2.93106e-01,3.22071e-01,1.52566e-02,-7.59454e-03,-6.62561e-03,
1.20395e-01,1.24389e+00,1.66464e-01,-1.20847e-01,-2.00890e-01,-2.24367e+00,4.39776e-01,6.15152e-02,6.93435e-02,-2.01081e-02,-2.86030e-02,
-1.02344e-01,3.54435e-01,-2.08562e-02,1.94696e+00,8.37386e-02,5.14739e-01,7.12925e-02,2.85882e-01,-4.28524e-02,-1.72190e-03,7.27331e-03,
-7.99226e-01,-3.82222e-01,-2.48252e-01,-1.91774e-01,7.18321e-01,5.17088e-01,2.06718e-02,-3.48744e-01,9.64864e-02,-6.15590e-02,1.08988e-02,
-2.05394e-01,3.40457e-01,7.01052e-02,-2.72373e-01,7.86958e-01,1.19074e+00,-4.97375e-02,1.83464e-01,4.35485e-02,2.44897e-02,2.95400e-02,
-8.40658e-01,2.58772e-01,-5.55006e-01,-9.41343e-02,2.13636e+00,1.15925e-01,4.14906e-01,2.18676e-01,1.52082e-02,9.97252e-03,3.07827e-03,
5.31850e-01,-1.79318e-01,5.73381e-01,-8.32249e-01,-9.86822e-01,1.00464e+00,9.95641e-02,9.14326e-03,-1.00348e-02,-1.55875e-02,2.06290e-02,
-1.37476e-01,6.54147e-02,1.92696e-02,-6.96335e-03,-1.78964e+00,-1.51281e-01,2.37064e-01,-2.00431e-01,-2.04085e-03,-4.95949e-03,1.39036e-02,
3.22552e-01,
-1.44923e-01,
3.79734e-01,
4.15865e-01,
3.39464e-01,
3.85557e-01,
-7.34547e-02,
4.63838e-01,
1.94433e-01,
-1.01558e-01,
2.02400e-01,
1.89838e-02,
5.14586e-02,
9.29058e-02,
8.47929e-02,
-9.24875e-02,
3.97759e-01,
7.48591e-02,
-2.89477e-02,
4.48470e-01,
-3.46556e-01,2.84744e-01,5.66850e-01,1.26127e-01,-3.58615e-01,4.17013e-02,5.05404e-01,-6.38920e-01,-3.18265e-01,7.21003e-01,5.64078e-01,8.07734e-02,-5.63518e-01,4.02572e-01,-1.14839e-01,6.85785e-01,3.68956e-01,-1.48597e-01,1.67012e-03,8.14209e-01,
-2.78583e-01,6.53565e-01,-5.52233e-01,-2.70840e-01,1.19438e-01,9.27918e-01,-6.70892e-01,1.29421e-01,4.39448e-01,3.85397e-01,-1.44020e-01,2.85307e-01,-3.84799e-01,-1.51725e-01,8.88770e-01,3.67236e-01,4.85635e-01,1.47849e-01,-6.40083e-01,-2.38476e-01,
-2.21425e-01,-6.25905e-01,2.88179e-01,1.64057e-02,5.48012e-02,2.14893e-01,-6.50766e-01,9.73420e-02,3.42299e-01,-1.24440e+00,-2.28242e-01,-1.06839e+00,-8.74489e-01,-2.30592e-01,-2.00993e-02,1.90146e-01,3.65015e-02,-4.76572e-01,-1.53742e-01,1.90868e-01,
2.49720e-01,2.52312e-01,2.09290e-01,1.85221e-01,-1.55166e-01,-2.50508e-01,9.95570e-01,-8.72898e-01,2.51426e-01,8.04888e-01,-2.37842e-02,-2.14430e-01,1.73544e+00,-5.71556e-02,3.51673e-01,2.33374e-01,-1.31272e-01,7.69962e-01,1.84498e-01,1.93621e-01,
-2.13796e-01,-5.41138e-01,6.13818e-02,-2.62762e-01,-2.28439e-01,4.33765e-01,-2.49688e-01,3.90325e-01,6.27399e-01,-5.86105e-01,7.97529e-01,1.20732e-02,-1.11497e+00,4.22138e-01,2.36264e-01,5.61999e-01,-3.90954e-01,1.71340e-04,1.64078e-01,-1.40861e-01,
-5.15253e-02,1.43462e-01,-4.17270e-04,-3.57712e-01,-4.67486e-01,-4.52191e-01,-3.45658e-01,-3.01225e-01,3.45811e-01,-1.09404e-01,-2.27367e-01,-1.89145e-01,-5.50064e-01,2.16808e-01,1.09708e-01,5.49296e-02,-1.04048e+00,-2.48696e-01,-2.97269e-01,-7.68068e-01,
5.32904e-01,4.13582e-01,3.74908e-01,2.84997e-01,1.15855e-01,3.93030e-01,-2.59841e-01,2.18830e-01,2.23744e-01,2.37546e-02,-5.94075e-01,-4.98407e-02,4.03595e-01,-1.30278e-01,-4.22015e-01,1.66155e-01,2.92431e-01,-3.27479e-01,7.07178e-02,-5.08346e-02,
8.88880e-01,-4.21317e-01,4.35019e-02,-4.39442e-02,2.25874e-01,-4.89489e-02,3.55750e-01,3.32008e-01,-9.84277e-02,-2.25658e-01,3.18173e-01,4.27435e-01,7.33779e-01,-8.52418e-02,-1.25943e-01,4.39488e-01,7.89104e-02,2.08990e-01,-1.35030e-01,1.96093e-01,
-1.40246e-01,-3.15192e-01,-2.96018e-01,-3.29475e-01,-1.12372e+00,-6.11748e-02,-2.81264e-01,-4.51346e-01,5.54234e-01,8.59297e-01,4.49078e-01,3.67460e-01,-6.01662e-01,6.45458e-01,1.50264e-01,-1.49690e-01,-5.43391e-01,1.50317e-01,1.87096e-01,-4.87695e-01,
-6.28391e-01,-3.35432e-01,2.11256e-01,3.34255e-01,1.48266e-01,-2.93817e-01,-8.66535e-01,6.15240e-01,1.04288e-01,-7.15374e-01,4.67355e-01,4.40349e-01,1.01446e-01,3.69233e-02,1.80860e-01,-2.36950e-01,-7.22508e-01,-1.00511e+00,1.84512e-01,6.22064e-01,
-3.16401e-01,-8.00959e-01,5.11101e-01,8.41904e-01,5.19302e-01,2.81147e-01,1.11130e+00,6.73172e-02,-2.94884e-01,-2.34104e-01,-3.35923e-01,-4.48931e-01,8.44983e-01,4.59959e-02,-8.36143e-01,-1.66673e-01,-2.99858e-01,-8.82542e-02,5.53132e-01,5.34719e-01,
-1.26450e-01,6.06227e-01,-1.70687e-01,-5.69626e-01,5.97018e-02,4.02963e-02,-5.37919e-01,-2.85929e-01,1.17741e-01,-3.71594e-01,-1.98711e-01,-1.36918e-01,-9.70817e-01,1.31805e-01,4.53816e-01,-2.54313e-01,5.47186e-01,2.55666e-01,-1.42626e-01,4.31279e-01,
-2.94364e-02,6.25116e-01,-7.09533e-01,6.74820e-01,1.59397e-01,4.17111e-01,-8.61034e-02,4.44196e-01,-2.07502e-01,-7.35489e-02,-1.30628e+00,-1.06777e+00,4.89586e-01,3.90143e-01,4.86494e-01,-7.93861e-02,4.11832e-01,7.12576e-01,-6.61865e-01,-3.68784e-01,
1.16686e-01,7.72304e-01,-1.45553e-01,-2.37703e-01,3.99058e-01,-3.32105e-01,2.24975e-01,2.13776e-01,-1.60761e-01,-2.15393e-01,1.79309e-01,2.75951e-01,-1.34245e-01,-1.00166e-01,-9.33904e-02,6.91618e-01,5.78171e-01,5.78189e-01,4.19493e-01,-5.80238e-01,
-1.57443e-01,-1.95133e-01,2.27224e-01,6.91336e-01,-4.15287e-01,3.73882e-01,1.16762e-01,-6.63621e-02,-9.37584e-03,7.83190e-01,2.76609e-01,-1.16472e+00,-1.89177e-01,6.08837e-01,1.83691e-01,-1.93198e-01,-3.15667e-01,2.50033e-01,-5.91636e-02,4.32891e-01,
9.24212e-01,-5.84174e-01,-1.48210e-01,-1.76215e-01,4.01224e-01,7.93761e-01,8.18081e-01,1.21527e-01,8.58932e-02,-4.49811e-02,4.51277e-01,2.45273e-01,3.13453e-01,-5.98527e-01,2.66959e-01,2.94047e-02,-4.03463e-01,-1.33090e-01,2.36603e-01,-1.04490e-01,
1.06222e-01,-1.08943e-01,-7.79843e-02,8.28700e-02,-1.02334e-02,-2.10956e-01,-2.25499e-01,-2.68028e-01,4.72561e-01,-8.50756e-01,1.10096e+00,8.41859e-02,-1.21451e+00,6.33448e-01,4.33916e-01,4.22519e-02,-4.69857e-01,3.88674e-02,1.20894e-01,6.36029e-01,
-1.44739e-02,2.85382e-01,5.82386e-01,1.50105e-01,-3.12985e-01,4.45818e-02,1.69057e-01,4.60066e-01,3.46444e-01,1.03430e-02,1.13395e+00,1.48575e-01,-5.13267e-01,-3.65954e-01,-3.11005e-01,-2.11549e-01,-5.56857e-01,3.69151e-01,-1.58234e-01,8.50017e-01,
-8.75657e-01,-9.51332e-02,8.05670e-02,1.63261e-01,2.85490e-01,-3.18143e-01,-2.89479e-01,1.60257e-01,-7.93590e-02,3.38686e-01,-1.83958e-01,1.73976e-01,-7.96955e-02,1.14924e+00,6.47833e-01,-4.24301e-01,2.51188e-01,-4.36580e-03,3.19474e-01,5.60344e-03,
-5.26648e-01,2.80759e-01,8.67156e-02,1.34491e-01,-1.22099e-01,-2.88426e-01,2.74195e-01,4.55163e-01,7.90818e-02,3.55677e-01,6.58304e-01,-7.13305e-02,8.05438e-01,-1.42442e-02,2.61516e-04,7.80700e-01,-5.93745e-02,2.31978e-02,6.69232e-01,-6.85342e-01,
4.05629e-02,
6.83018e-02,
4.99412e-01,
-1.77017e-01,
-1.07913e-01,
-9.44886e-02,
1.33855e-01,
6.91738e-01,
-4.35404e-01,
3.36580e-01,
-2.64901e-01,
5.83759e-01,
4.40173e-01,
-4.06364e-02,
-7.64836e-02,
3.38455e-01,
5.83274e-01,
-1.92487e-01,
-1.78401e-01,
-2.38031e-02,
-1.16867e+00,7.67127e-01,9.49839e-01,9.62740e-02,4.11947e-01,-4.70737e-01,1.22890e-01,-7.48053e-02,-6.52369e-01,-4.81184e-01,-1.54894e-01,2.08347e-01,5.75630e-01,2.09432e-01,1.56525e-01,-2.77994e-02,2.31388e-02,-4.06108e-01,2.61543e-01,5.94960e-01,
-9.61975e-02,-2.97993e-01,3.12734e-01,1.56968e-01,-1.99048e-01,-1.45164e-02,-7.97832e-02,-3.74617e-01,-1.99522e-01,2.16229e-01,3.51564e-01,-2.11004e-01,1.02725e-01,-2.42860e-02,-1.49093e-01,3.71081e-01,-9.24307e-02,-3.36680e-01,-2.78528e-01,-2.21131e-01,
-7.32613e-01,5.06571e-01,-8.66775e-01,4.74879e-01,-6.28727e-02,-2.18541e-01,-2.65060e-01,-3.52215e-01,-4.64303e-01,-7.09553e-01,-7.77968e-01,1.90245e-01,6.25387e-01,2.31633e-01,-5.29513e-01,4.31101e-01,-5.08891e-01,-4.50198e-01,-6.59687e-01,-1.22322e-01,
1.40866e-01,5.43003e-01,-4.27349e-01,-4.98946e-01,-3.85407e-01,-6.22225e-01,4.37155e-01,4.50857e-01,-5.57019e-01,2.11952e-01,3.29236e-02,3.89781e-01,-4.13056e-01,-4.75256e-02,-5.71699e-01,4.60031e-01,3.49914e-01,-6.23668e-01,-7.97914e-01,-4.25724e-01,
-3.27880e-01,-2.44909e-01,3.67180e-01,-3.75882e-01,-1.57671e-01,1.90911e-01,-1.91921e-01,7.29100e-02,1.40882e-01,-1.04067e-01,-5.78461e-02,-5.87247e-02,-2.99885e-01,-2.48385e-01,-8.86762e-02,-2.91189e-01,1.92160e-01,-8.76041e-02,-2.36014e-01,4.26033e-02,
-1.47713e-01,-7.73082e-03,1.74148e-01,-5.01337e-01,-2.85406e-01,8.12971e-01,8.30562e-02,-2.45825e-01,9.55633e-02,1.02014e+00,3.45531e-01,-2.40863e-02,2.76826e-01,-2.51968e-01,2.43237e-01,-1.52227e-01,6.76665e-02,-9.56458e-01,3.08309e-01,-7.17020e-02,
-1.05116e-01,1.00895e-01,5.26597e-01,-1.18245e-01,8.80774e-02,-2.23794e-01,-2.30269e-01,-2.06926e-01,-8.46415e-03,-1.13970e-01,-5.35308e-02,-7.71816e-02,4.13918e-01,4.81800e-01,-3.94436e-01,-6.75078e-02,-3.96802e-01,-2.70219e-01,3.76529e-01,-1.97504e-01,
-6.99956e-01,-9.54526e-02,9.62361e-01,3.35031e-03,9.79113e-01,-3.50119e-01,-2.66175e-01,3.28285e-01,-5.38380e-01,-4.15973e-01,-2.21599e-02,6.64731e-01,7.94448e-02,3.53697e-01,-2.40574e-01,1.22891e-01,4.10944e-01,8.54883e-02,-2.02631e-01,1.25385e-01,
3.73618e-01,-1.63353e-01,-1.19472e+00,9.13414e-01,-7.46204e-01,-7.43111e-01,4.49836e-01,3.74767e-01,1.73141e-03,4.02952e-02,5.38276e-01,-1.78971e-01,-1.84366e-01,-6.13641e-01,1.17399e-02,4.83005e-02,3.95654e-01,7.18608e-01,-1.07500e-02,4.14024e-01,
-2.45029e-02,-2.31004e-01,6.11574e-01,7.71672e-01,-7.92652e-02,-1.61665e-01,1.38022e-01,3.01884e-01,-2.22313e-01,2.91482e-01,2.18293e-01,-6.46068e-03,4.98403e-01,-1.04744e+00,2.67876e-01,-5.21141e-01,-8.83552e-02,4.88618e-01,-5.96636e-01,8.31554e-02,
-8.51026e-01,1.58638e-01,8.52850e-01,-2.28987e-01,1.63800e-02,1.92923e-01,-2.07423e-04,1.65134e-01,-5.89297e-01,4.51163e-01,5.14440e-01,-1.92369e-01,-2.75050e-01,-4.89760e-01,2.49208e-01,6.11222e-02,2.87531e-01,3.93035e-01,1.37477e-01,-3.74150e-01,
-6.28233e-01,6.09402e-01,9.28145e-01,-2.07013e-01,4.44593e-01,5.86966e-01,-1.92333e-01,-2.14463e-01,-8.04760e-01,4.13932e-01,-1.24377e+00,2.24841e-01,6.78681e-02,-1.04334e-02,5.33726e-01,-5.72514e-01,3.58104e-01,1.39424e-01,-7.38844e-02,-5.99707e-02,
-3.08767e-01,2.90280e-01,-1.32238e+00,3.11604e-01,-2.55198e-01,-1.61435e-01,-2.25710e-01,-2.10544e-02,-7.48519e-01,9.02590e-01,-3.89684e-01,2.64240e-01,1.61082e-01,1.90924e-01,-2.11637e-01,-6.48071e-01,-2.52646e-01,9.34739e-02,4.45101e-01,-3.51875e-01,
-6.11833e-01,1.50036e-01,-8.03815e-01,2.05073e-01,-3.16694e-01,2.74723e-01,-2.78047e-01,-4.54607e-01,-1.71617e-01,-1.74955e-01,-4.69930e-01,2.75303e-01,3.30620e-02,-7.06923e-02,2.20336e-01,-1.26026e-01,-7.89356e-01,1.90075e-01,-4.75344e-02,2.78470e-02,
3.16675e-01,-2.89202e-01,8.53018e-01,4.81306e-01,3.38867e-01,8.39268e-01,-3.84238e-02,-5.28683e-02,-1.70821e-01,-5.07955e-01,4.79474e-01,-4.86520e-01,3.59188e-01,-5.78403e-01,6.73393e-01,2.14491e-01,3.47502e-01,-1.60789e-01,4.87979e-01,6.92647e-02,
4.75848e-01,3.08472e-01,3.32051e-01,-1.15072e+00,5.22182e-01,7.24174e-01,2.52038e-01,3.24230e-01,1.00863e+00,5.71165e-01,9.99153e-02,3.89455e-02,-1.62147e-01,1.19431e-01,2.11560e-01,7.97454e-02,1.00079e-01,5.99598e-02,3.19236e-01,-2.29381e-01,
-5.90430e-01,1.61278e-01,1.83676e-01,4.81975e-01,-9.47273e-01,-8.42733e-02,2.06414e-01,3.01210e-01,-3.16118e-01,-6.64640e-02,-4.52736e-02,2.66971e-01,9.55220e-01,3.77153e-01,-9.72615e-01,-6.35797e-02,-3.02498e-01,-9.48412e-01,2.19210e-01,-2.20116e-01,
3.66640e-01,1.18866e-01,-1.53415e+00,1.58725e-01,4.50530e-01,3.40463e-01,-4.75509e-01,5.02062e-01,6.68882e-01,2.78595e-01,1.03188e-01,-5.77628e-01,-1.52721e+00,4.35537e-01,-3.19379e-01,8.18309e-01,5.54780e-01,7.18277e-01,-2.35885e-01,4.99100e-01,
-1.97928e-01,3.71872e-01,-1.30144e+00,1.63915e-01,7.23016e-01,1.09763e+00,-1.55850e-01,-5.48082e-02,1.17775e+00,8.90405e-01,5.13078e-01,-1.01746e+00,-1.26373e-01,3.84711e-01,8.41016e-02,3.16718e-01,-7.66877e-01,9.07137e-01,-1.68567e-01,2.41936e-01,
2.48386e-01,-5.24820e-01,2.67474e-01,-4.11191e-02,-5.67374e-03,-7.81674e-02,2.88245e-01,-1.74709e-01,-2.15317e-01,-1.41632e-01,-5.03941e-01,5.62661e-01,-2.09340e-01,1.34269e-01,-9.02604e-01,-2.71772e-01,1.57937e-01,-4.53763e-01,5.76485e-01,-3.30932e-01,
4.28009e-01,
-1.77351e-01,
-9.16418e-03,
6.65636e-02,
-2.24044e-01,
3.64856e-01,
-1.16324e-01,
4.51645e-01,
7.42767e-02,
4.73851e-01,
-2.37394e-01,
1.24636e-01,
-3.16717e-02,
-6.28249e-02,
-1.28355e-01,
1.08755e-01,
5.56126e-01,
-1.33819e-01,
-2.52113e-01,
-2.50476e-02,
-5.00651e-01,3.70257e-01,1.05318e+00,5.83639e-01,-3.02506e-01,1.04238e-01,4.72351e-01,4.59472e-02,2.19290e-01,-3.08039e-01,1.91967e-01,-3.47447e-01,1.20273e+00,-4.82132e-02,-1.08266e-01,-1.19232e-01,-3.22921e+00,5.80039e-01,-2.78922e-01,-2.36459e-01,
5.51345e-01,1.20660e-01,5.41629e-01,4.97724e-01,2.32329e-01,-3.85608e-01,-8.93901e-02,3.83552e-01,3.04984e-01,-9.25345e-02,-1.78425e-01,1.54822e+00,6.64967e-01,-9.04032e-01,-8.16014e-02,2.43911e-01,-1.23837e+00,-3.72096e-01,-1.50459e+00,5.23694e-01,
4.77976e-01,7.29592e-02,3.96762e-01,-3.19666e-01,9.37255e-02,4.41288e-02,1.09522e-01,-6.68791e-02,2.52515e-01,3.76697e-01,9.54247e-01,-7.88123e-03,-6.26804e-01,4.42002e-01,3.14064e-01,-5.37692e-02,3.28444e-01,3.05047e-03,7.65684e-02,-5.94405e-01,
5.04976e-01,1.75182e-01,-1.48367e-02,3.15294e-01,-2.02268e-01,6.17355e-01,-2.46528e-01,8.23990e-01,-7.25178e-01,-1.09312e-01,5.03804e-02,4.56879e-01,-6.23941e-01,-7.11031e-01,-7.71734e-01,5.01419e-01,-2.60442e-01,-3.98506e-02,1.67158e-02,-7.28626e-01,
3.06263e-02,-6.93970e-02,6.83184e-01,8.47048e-02,-7.07865e-04,-4.16949e-01,8.44506e-01,-9.20536e-02,3.41117e-01,7.74720e-02,-9.63097e-01,3.70189e-01,5.97840e-01,5.52496e-01,5.61063e-01,7.78468e-03,6.05873e-01,5.98375e-03,-1.29162e-01,3.84961e-01,
-6.57058e-01,-1.19833e-01,1.72361e-01,-1.84471e-01,1.99998e-01,8.79480e-01,-1.01010e-01,-5.10784e-01,4.85408e-02,-5.08115e-01,4.60521e-01,8.75240e-01,-8.42813e-01,-4.59711e-01,5.45335e-01,4.56128e-01,-1.18206e+00,6.36855e-01,-1.40936e-01,-1.98965e-02,
-5.08223e-01,2.86721e-01,5.68889e-02,1.72287e-01,-2.94835e-01,2.37475e-01,4.79399e-01,1.59204e-01,9.00609e-01,4.32703e-01,1.19052e-01,-2.27166e+00,-1.08404e-01,-1.56655e-01,-9.79355e-03,3.37717e-01,3.55989e-01,2.67928e-01,2.00116e-02,3.38417e-01,
-1.21141e-01,-2.12175e-01,1.35292e+00,4.69313e-01,2.70041e-01,-3.32059e-01,1.55115e-01,2.73540e-01,-1.74027e-01,5.25257e-01,4.37949e-01,-2.62654e-01,3.88434e-01,9.38476e-01,-1.95162e+00,-2.06939e-01,5.46302e-01,-3.40437e-01,-7.32418e-01,1.77584e-02,
4.34731e-01,-2.38244e-01,9.69085e-01,4.61339e-01,-2.24834e-01,-2.81330e-01,2.18784e-01,4.22985e-01,-1.93650e-01,1.45831e-01,-5.74977e-01,-1.46107e+00,-4.17642e-03,-1.13900e-01,-2.87764e-01,-2.21131e-02,1.21003e+00,-2.06266e-01,4.86994e-01,5.77186e-01,
1.36275e-01,-3.43988e-01,1.73274e+00,6.80621e-01,-1.28386e-01,-6.02693e-01,4.62507e-01,1.11169e-01,-3.73764e-01,-8.17797e-01,-2.02716e-01,-8.53228e-02,-1.87350e-02,2.61126e-03,3.25309e-02,3.03720e-01,8.71990e-01,7.11774e-01,-2.36447e-01,-1.97184e-01,
1.52976e-01,-1.62137e-01,9.58707e-01,5.19893e-02,-2.16366e-01,-4.22031e-01,6.06617e-01,-1.17126e-01,4.01487e-01,1.10108e-01,-9.54360e-02,-1.47737e+00,-2.30806e-01,-3.53400e-01,-4.98275e-01,2.67412e-01,7.33159e-01,3.89593e-01,2.30656e-01,3.83651e-01,
6.77710e-01,-2.90938e-02,9.76982e-02,-6.23504e-01,-7.77490e-02,-5.21159e-01,1.57324e-01,5.59592e-01,1.39560e-01,3.97873e-01,-4.92056e-02,-1.98248e-01,9.99734e-01,7.00286e-01,1.29230e-01,-3.94877e-01,-1.54163e-01,3.35046e-01,2.58732e-01,-3.12940e-01,
-2.20285e-02,5.62505e-02,-1.65408e-01,-2.99682e-01,-2.13872e-01,-1.66829e-01,1.01754e-01,-1.42400e-01,-2.52305e-01,6.22057e-02,-2.78122e-01,3.71818e-02,-1.27006e-01,-5.89437e-02,6.07471e-02,-3.56597e-01,-2.39674e-01,-1.96764e-01,4.55445e-03,3.86528e-01,
5.44281e-01,-1.70970e-01,1.56792e-01,-2.91467e-01,3.02659e-01,-1.78330e-01,-1.50161e-01,6.62575e-01,-3.33538e-01,8.60506e-02,6.82381e-01,1.75146e+00,6.70539e-01,-3.80834e-01,2.16809e-01,-2.06677e-01,-4.15207e-01,-5.08472e-01,1.45558e-01,-9.78764e-01,
-1.42223e-01,3.17043e-01,-3.28311e-02,-6.42306e-01,-3.45124e-01,-1.24308e-01,6.81698e-02,-3.78050e-01,-3.57529e-02,-2.15605e-01,3.74369e-01,-6.75260e-01,1.86240e-01,-4.22782e-01,1.34070e-01,-3.00789e-01,1.39499e-01,-6.60581e-02,1.97293e-01,8.14299e-01,
4.30145e-01,3.00717e-01,-7.16836e-01,-8.10846e-01,-2.92159e-01,6.19787e-01,3.99092e-02,-9.24745e-02,-2.26084e-01,-1.25503e-01,6.18227e-01,1.62453e+00,-1.35651e+00,2.41142e-01,3.67294e-01,2.33408e-01,-1.22179e+00,4.95177e-01,-2.73137e-01,-5.22530e-01,
7.49104e-01,7.50038e-02,-1.68014e+00,-6.67620e-01,1.06441e-01,5.72228e-01,7.92664e-03,2.35968e-01,-3.65509e-01,-6.44698e-02,7.34479e-01,4.79709e-01,-1.06100e+00,-2.58943e-01,-3.42889e-01,5.19513e-01,-4.94869e-01,4.54345e-01,2.03793e-01,-4.41137e-01,
-8.23155e-01,2.12448e-01,5.34492e-01,4.27586e-01,-1.64278e-01,6.23809e-01,7.89736e-01,-2.80685e-01,6.60681e-01,3.21043e-01,-2.41159e-01,-1.55542e+00,2.43900e-01,8.02030e-01,-1.11503e-01,-1.11600e-01,8.02592e-01,1.29303e-01,5.97555e-01,1.82457e-01,
1.01352e+00,1.73791e-01,2.35382e-01,-2.05892e-02,-2.32093e-01,-5.23338e-02,-4.49271e-01,4.05373e-01,1.95919e-02,-2.40875e-01,-1.54727e-01,1.42384e+00,1.28104e-01,9.80901e-02,-1.32322e-01,1.08148e-01,6.25430e-01,3.85650e-01,-2.80823e-01,-9.55268e-01,
6.37179e-01,1.27689e-01,-8.49535e-01,2.07058e-01,3.37491e-01,1.44781e-01,2.54900e-01,4.48495e-02,-1.44515e-01,6.73439e-02,1.90292e-01,1.69389e+00,-1.04689e+00,3.52357e-01,5.69854e-02,5.34341e-01,-2.51118e-01,-5.82868e-02,4.83360e-02,-6.42647e-01,
8.38661e-02,
5.32957e-01,
-3.35094e-01,
5.25609e-01,
1.85673e-01,
-3.15267e-01,
8.37643e-03,
3.05974e-01,
6.64254e-01,
-4.52347e-01,
6.17290e-01,
4.59961e-01,
1.55112e-01,
2.58994e-02,
-4.86722e-01,
6.63342e-02,
2.90482e-01,
1.04629e-01,
3.56057e-01,
3.97888e-01,
-1.11441e+00,2.98135e-01,-2.67776e-01,1.00014e-01,6.15414e-01,-3.33583e-01,8.83005e-02,1.03359e+00,3.09243e-01,9.24036e-01,2.40005e-01,6.32343e-01,6.95398e-02,5.75524e-01,-1.56022e+00,-4.36768e-01,9.70833e-03,-9.20653e-02,-2.73936e-01,2.45518e-01,
-6.57630e-01,8.69244e-01,-5.97175e-01,-2.90544e-01,6.52206e-01,-1.36805e-01,2.40727e-01,6.82682e-01,3.54643e-01,9.71943e-01,5.43598e-01,-1.01419e-01,3.25300e-01,1.53626e-01,-1.80661e+00,-5.39984e-01,-5.24352e-01,1.66240e-01,1.87441e-01,4.25110e-01,
1.26747e-01,1.66246e+00,-4.62365e-01,-5.16131e-01,5.48492e-01,-6.17008e-02,3.82865e-01,5.29122e-01,8.53834e-02,8.83331e-01,-7.40796e-02,6.23845e-01,3.73313e-01,4.65177e-01,7.92089e-01,-8.04387e-02,-2.84143e-01,-2.22725e-01,5.28305e-01,-2.88969e-01,
-2.07427e+00,-3.09142e-01,-1.34336e+00,5.61454e-01,1.73847e-02,-7.91255e-01,3.24073e-01,4.75699e-01,1.09799e+00,-3.08163e-01,6.72067e-01,-5.98474e-01,-5.76376e-02,-3.76595e-01,-1.19436e-01,-2.95982e-01,-3.26582e-01,8.52565e-01,-1.82801e+00,-2.09583e-01,
3.64958e-01,-9.06772e-01,3.41629e-01,2.87242e-01,-2.05106e-01,2.76986e-01,4.66335e-01,-3.03194e-01,5.65961e-01,-3.66438e-01,5.11636e-01,-1.03058e-01,2.56764e-01,-6.55501e-01,-1.51991e+00,3.08714e-02,9.48508e-02,4.00627e-01,-9.41310e-01,8.67145e-02,
-8.95469e-01,1.24564e-02,-7.55703e-01,5.93494e-01,-1.90673e-01,-1.44286e-01,-9.80951e-01,-3.83590e-01,3.64882e-02,1.66206e-01,-3.58057e-01,2.04633e-02,-2.37696e-01,7.34371e-01,1.80816e-01,1.14487e+00,1.14498e-02,-1.19872e+00,1.03834e+00,5.55739e-01,
5.53235e-01,4.96623e-01,-7.86646e-01,4.07059e-01,3.36269e-01,4.97318e-01,-3.31975e-01,-2.07834e+00,-6.04620e-01,4.22072e-01,-4.32428e-01,-5.21889e-01,-1.98242e-01,1.97729e-02,1.62523e+00,2.78044e-01,3.76920e-01,-1.82004e-01,8.69430e-01,4.95310e-01,
8.78810e-01,5.31748e-01,-1.07564e-01,-6.47656e-02,-2.22253e-01,2.94911e-01,-2.43098e-01,3.80978e-01,-7.60584e-01,-9.66567e-01,-4.03771e-01,9.32895e-01,9.78420e-02,4.81420e-01,1.64695e+00,3.28308e-01,-9.91032e-03,-2.23309e-01,7.05220e-01,-3.75014e-01,
2.23397e-01,-1.58675e-01,1.21875e-01,1.65341e-01,-3.00481e-02,2.45742e-01,6.06144e-01,-2.20853e+00,-3.86346e-01,-9.57064e-01,-9.40805e-02,-5.69045e-01,-6.20200e-02,-1.06029e+00,1.30584e+00,4.61935e-01,2.96078e-01,-2.33182e-01,3.64922e-02,2.53170e-01,
9.11062e-02,-5.78998e-01,-5.74840e-02,-4.75594e-01,8.28484e-02,-1.32256e-01,-7.08423e-02,-3.00435e-01,4.31783e-01,-2.52164e-01,1.79009e-01,-1.30445e-01,-2.17505e-01,4.50152e-02,1.78947e-01,1.99941e-02,5.28260e-01,3.28841e-01,3.44247e-01,-6.52660e-02,
8.50713e-01,-7.98689e-01,4.71635e-01,6.08932e-01,-5.50775e-01,5.53202e-01,3.79886e-01,-7.18389e-01,-2.38360e-01,-1.62125e+00,-2.88393e-01,2.26361e-01,-6.02168e-02,4.23432e-01,1.39934e+00,5.47570e-01,4.46083e-01,3.66170e-01,6.60345e-01,3.86497e-01,
-8.43816e-01,7.01432e-01,1.60559e-01,-4.36359e-02,2.70708e-01,-7.55292e-01,9.43080e-03,-2.98680e-01,-6.17745e-01,-5.46549e-01,-4.03901e-02,-7.00425e-02,-2.51555e-01,2.74928e-01,-1.52783e-01,-4.96673e-02,-1.14717e-01,3.44374e-01,-2.43700e-01,6.22041e-02,
5.32481e-01,3.73318e-01,2.13924e-01,2.39241e-01,3.28522e-01,2.10543e-01,-1.17258e-01,9.18925e-03,-3.87278e-01,-1.25277e+00,-3.79258e-01,-4.39318e-02,-2.69385e-01,9.40165e-01,1.55576e+00,1.42315e-01,3.86435e-01,1.26012e-01,1.95261e-01,4.76095e-01,
5.53106e-01,-1.05992e+00,-5.13142e-02,6.17193e-01,4.48918e-01,1.44362e-01,1.70118e-01,1.40664e-01,6.94658e-01,-8.04326e-01,1.60435e-02,6.74664e-02,-3.54362e-01,-8.93463e-01,-1.04535e+00,2.75934e-01,5.69862e-01,-1.04689e-02,-7.33830e-01,4.93193e-01,
-9.80313e-02,5.72728e-01,4.48579e-01,-8.56227e-01,1.02619e-01,6.00536e-01,1.60724e-01,7.06211e-01,1.59126e-01,1.83537e-01,-1.06401e-01,5.11116e-01,3.36475e-01,1.63881e-01,-1.62849e+00,4.04191e-02,5.03712e-01,6.72842e-04,2.82889e-01,-2.55132e-01,
-7.22018e-02,-7.96892e-01,3.53065e-01,-4.75834e-02,9.93937e-03,-8.21314e-03,-3.60058e-02,7.94615e-01,2.30288e-01,1.01690e-01,-7.10399e-02,7.62210e-01,-1.91984e-02,-3.08681e-01,-1.13351e+00,2.35596e-01,-1.89693e-01,3.46815e-01,-1.35222e+00,-1.64181e-02,
-3.77318e-01,-1.48889e+00,6.39370e-01,-5.31855e-01,1.00081e-01,-2.67993e-01,2.93931e-01,2.85144e-01,-9.48986e-02,-5.94723e-02,5.25272e-02,5.60219e-01,3.01545e-01,-1.13636e+00,-1.33330e+00,-1.04664e-01,3.38489e-01,-3.72592e-02,-7.81421e-02,-9.74853e-01,
-2.13718e-01,-1.52510e+00,-1.56465e-02,1.39836e-01,-3.37216e-01,2.40898e-01,-2.14081e-01,7.98113e-01,6.48164e-01,4.30308e-01,5.29031e-01,4.36105e-01,-1.94585e-01,-1.02085e+00,-1.46894e+00,-3.96673e-01,1.63810e-01,3.83858e-01,-1.26004e+00,6.29793e-02,
-2.23535e+00,5.95428e-01,-1.27663e+00,5.42409e-01,2.67183e-01,-9.20691e-01,-7.17334e-01,-4.52722e-02,4.99957e-02,8.02465e-01,-1.49570e-02,-4.15173e-02,-3.54883e-01,4.14094e-01,1.70781e-01,7.79572e-01,6.22444e-01,-1.28617e+00,7.17706e-01,6.45311e-01,
-1.46899e+00,9.15882e-01,-7.57543e-01,4.86785e-01,-2.19274e-01,1.13779e-01,-6.89166e-01,3.29219e-01,-1.19790e-01,3.30508e-01,-5.54881e-02,9.08542e-01,-1.34143e-02,8.02993e-01,1.68217e-01,1.28783e+00,5.56402e-01,-1.36062e+00,1.38605e+00,8.22576e-01,
2.92731e-01,
2.06701e-01,
2.27325e-01,
7.29630e-01,
1.60110e-01,
-2.93260e-01,
2.76440e-01,
2.27411e-01,
7.46483e-03,
1.42978e-02,
-1.79834e-01,
6.07603e-01,
3.42298e-01,
5.00248e-01,
-9.03545e-02,
-1.18075e-01,
-8.70235e-02,
-1.28327e-01,
1.86351e-01,
7.17247e-02,
-6.69683e-03,-1.75194e-01,-1.53529e-01,3.26693e+00,3.27050e-01,-2.91741e+00,-1.00448e+00,2.19909e-01,-5.18089e-02,-6.16416e-01,-8.87531e-02,-4.52003e-01,-5.21182e-01,5.16076e-01,3.19100e-01,5.80824e-01,5.73702e-01,6.91659e-01,-1.07221e+00,-1.73792e+00,
5.47713e-01,7.13605e-01,9.77530e-01,1.03817e-01,-5.63445e-01,-2.86041e-01,-1.06420e+00,-3.22617e-01,-1.72573e+00,8.49078e-01,-9.68461e-01,1.27402e+00,-9.21378e-01,-9.20277e-01,-4.12425e-02,3.06900e-01,-6.18951e-01,4.85483e-01,4.84040e-01,5.93481e-01,
3.28765e-01,5.89467e-01,-2.16018e-01,4.30723e+00,8.31838e-01,4.77138e-01,2.63134e-01,-7.94628e-01,7.90944e-01,6.47448e-01,-5.44400e-01,2.49848e-01,-1.35883e+00,8.50486e-01,-1.42645e+00,8.09800e-02,-1.27198e+00,2.53254e-01,1.82415e+00,-7.58123e-01,
5.04253e-01,
8.36854e-01,
1.46069e-01,
