// Neural Network File Format by Kyle Julian, Stanford 2016
6,11,3,20,
11,20,20,20,20,20,3,
0,
-3.4028235e+38,-3.4028235e+38,-3.4028235e+38,-3.4028235e+38,-3.4028235e+38,-3.4028235e+38,-3.4028235e+38,-3.4028235e+38,-3.4028235e+38,-3.4028235e+38,-3.4028235e+38,
3.4028235e+38,3.4028235e+38,3.4028235e+38,3.4028235e+38,3.4028235e+38,3.4028235e+38,3.4028235e+38,3.4028235e+38,3.4028235e+38,3.4028235e+38,3.4028235e+38,
0.0,0.0,0.0,0.0,0.0,0.0,0.0,0.0,0.0,0.0,0.0,0.0,
1.0,1.0,1.0,1.0,1.0,1.0,1.0,1.0,1.0,1.0,1.0,1.0,
-5.61966e-01,-5.83453e-01,-2.92631e-01,2.34706e-01,7.57113e-01,3.94203e-01,3.32916e-01,2.27351e-01,1.68648e-02,7.24981e-03,-4.43264e-03,
-3.73037e-01,5.61799e-01,-2.70651e-01,-1.26981e-02,4.78930e-01,1.46903e+00,4.18077e-02,-4.02353e-02,-5.31568e-03,-7.54309e-02,3.59711e-02,
-1.45794e-01,-1.04428e-01,1.48036e-02,-2.06714e-01,-1.65469e+00,8.75621e-03,6.82718e-02,3.34825e-01,-1.59328e-02,2.41470e-02,-1.30435e-02,
-1.14087e-01,-2.68675e-01,-8.31398e-03,-1.94728e-01,-2.89371e-02,-1.58835e+00,-3.43087e-01,-2.08195e-01,2.58672e-02,3.15100e-02,2.44338e-02,
5.25676e-01,2.87935e-01,1.31894e-01,-3.23086e-01,8.88834e-01,8.69336e-01,-3.05228e-01,-2.62313e-01,-3.50393e-02,3.96066e-03,1.56412e-02,
-2.58190e-01,-1.06339e+00,9.18461e-01,3.00702e-01,-4.08889e-01,1.82019e+00,-1.64936e-01,2.85410e-01,-6.62477e-02,-3.60100e-02,2.93602e-02,
4.64811e-01,-1.03447e+00,2.49017e-01,1.03757e+00,-6.95434e-01,-8.67691e-01,2.85302e-02,5.29450e-02,-4.03217e-02,-2.70097e-03,-2.99669e-04,
1.35735e+00,-8.35198e-01,4.40288e-01,1.92591e-01,3.19572e-01,4.71889e-05,2.36061e-01,3.27075e-02,3.19963e-02,3.55451e-02,-1.48914e-02,
1.29207e-02,-1.82538e-02,-5.36272e-01,1.12140e+00,-1.32040e+00,-1.03015e+00,2.48368e-01,3.12685e-01,-4.49664e-02,1.14575e-02,1.50493e-02,
-4.78309e-01,-6.74715e-01,-4.26030e-01,8.38610e-01,-3.78162e-01,-8.88641e-01,1.97546e-01,-2.37677e-01,1.65407e-02,1.09974e-02,9.46619e-03,
-2.45443e-01,3.66824e-01,-1.94115e-01,5.59014e-03,-3.94570e+00,7.42646e-02,-1.98834e-01,1.11675e-01,1.62355e-02,-3.24224e-04,2.26169e-02,
1.31628e+00,-3.01260e-01,2.87621e-01,-1.17200e-01,-7.87332e-01,1.07462e+00,4.06063e-01,-1.17866e-01,-8.44772e-03,3.29355e-02,3.34695e-03,
-1.13034e-01,-1.92074e+00,-6.36692e-02,-4.63012e-01,6.54682e-01,-6.38875e-01,-2.93106e-01,3.22071e-01,7.38820e-03,1.52299e-03,5.99345e-03,
1.56395e-01,1.27653e+00,8.32662e-02,-4.86943e-02,-2.98788e-01,-2.37174e+00,4.39776e-01,6.15152e-02,3.09106e-02,2.83353e-03,-3.97292e-02,
6.50783e-02,4.80897e-01,-8.65646e-02,1.92094e+00,1.45620e-01,5.00213e-01,7.12925e-02,2.85882e-01,-5.28205e-02,7.06877e-03,1.22547e-02,
-8.54258e-01,-2.31944e-01,-2.82089e-01,-2.32110e-01,7.98629e-01,4.34783e-01,2.06718e-02,-3.48744e-01,7.19952e-02,1.17199e-02,9.27228e-03,
-2.33679e-01,3.48296e-01,8.51888e-02,-2.43839e-01,8.65060e-01,1.24187e+00,-4.97375e-02,1.83464e-01,2.18131e-02,3.72587e-02,3.20520e-02,
-9.02677e-01,2.25834e-01,-6.08230e-01,-6.83724e-02,2.20776e+00,6.16473e-03,4.14906e-01,2.18676e-01,4.29632e-02,5.54405e-03,-1.40118e-02,
5.18366e-01,-1.73132e-01,7.14401e-01,-8.23109e-01,-1.02173e+00,8.39445e-01,9.95641e-02,9.14326e-03,-4.17868e-03,1.21175e-03,-1.04933e-02,
-7.09145e-02,-6.33096e-02,-2.57496e-02,-3.82975e-02,-1.76408e+00,-6.37433e-02,2.37064e-01,-2.00431e-01,-3.90677e-03,-1.02359e-02,2.59582e-03,
3.71128e-01,
-1.81686e-01,
3.57432e-01,
4.19694e-01,
3.17207e-01,
4.42915e-01,
-4.31177e-02,
5.18844e-01,
1.36872e-01,
-8.33349e-02,
1.83419e-01,
-2.09118e-02,
5.03858e-02,
4.90314e-02,
6.46100e-02,
-9.72222e-02,
4.10920e-01,
9.02819e-02,
5.89067e-02,
4.18687e-01,
-3.65672e-01,2.81693e-01,5.62846e-01,1.35300e-01,-3.48155e-01,7.52277e-02,5.22085e-01,-6.21029e-01,-2.63724e-01,7.35132e-01,5.19131e-01,4.05154e-02,-5.58949e-01,4.09370e-01,-9.27972e-02,6.77667e-01,3.56062e-01,-1.74829e-01,5.16249e-02,7.96861e-01,
-3.47998e-01,6.34459e-01,-5.52779e-01,-3.17554e-01,9.29626e-02,9.74413e-01,-6.86949e-01,1.61508e-01,3.80339e-01,3.83533e-01,-1.77175e-01,3.85738e-01,-2.63125e-01,-8.00353e-02,8.42264e-01,3.58596e-01,4.53214e-01,1.00112e-01,-4.77487e-01,-2.38836e-01,
-2.14812e-01,-5.52485e-01,2.78169e-01,-5.89087e-03,1.04245e-01,2.29035e-01,-4.61220e-01,1.18428e-01,2.19379e-01,-1.60784e+00,-2.80707e-01,-9.43331e-01,-8.32068e-01,-2.18843e-01,-9.83477e-04,2.49428e-01,7.55447e-02,-4.46342e-01,-1.20860e-01,1.77917e-01,
1.92777e-01,1.73787e-01,2.04837e-01,1.97985e-01,-1.09036e-01,-2.60474e-01,9.50036e-01,-8.36304e-01,1.72073e-01,7.33509e-01,-2.17839e-02,-2.35669e-01,1.71684e+00,-8.21488e-02,3.18107e-01,1.91331e-01,-1.30408e-01,7.49878e-01,1.70660e-01,1.84936e-01,
-4.19295e-01,-2.48969e-01,5.78835e-02,-2.74650e-01,-2.23427e-01,2.88472e-01,-1.96919e-01,4.25547e-01,5.75292e-01,-5.24388e-01,7.74435e-01,4.41907e-02,-1.26319e+00,5.46241e-01,2.40814e-01,7.04398e-01,-3.97786e-01,9.74128e-02,1.64847e-01,-1.36332e-01,
-4.50110e-02,1.49539e-01,-4.17270e-04,-3.57712e-01,-4.62613e-01,-4.46677e-01,-3.39629e-01,-2.95643e-01,3.51945e-01,-1.03578e-01,-2.21000e-01,-1.83548e-01,-5.50064e-01,2.22448e-01,1.15944e-01,5.49296e-02,-1.04012e+00,-2.48696e-01,-2.97269e-01,-7.61415e-01,
5.72388e-01,3.51114e-01,3.61948e-01,2.80133e-01,8.31496e-02,6.34929e-01,-2.92490e-01,2.06750e-01,2.63541e-01,5.67737e-02,-6.55179e-01,-9.77894e-02,3.90113e-01,-1.86456e-01,-3.75102e-01,1.08219e-01,2.77781e-01,-3.87173e-01,6.62272e-02,-6.13127e-02,
9.07246e-01,-5.26980e-01,6.66243e-02,-1.88107e-02,2.33554e-01,2.71517e-02,3.08721e-01,2.81133e-01,-5.82199e-02,-2.30011e-01,2.91332e-01,3.50464e-01,6.61129e-01,-1.10425e-01,-1.24819e-01,3.44090e-01,1.15302e-01,1.30199e-01,-1.49412e-01,2.32971e-01,
-2.45592e-01,-4.45867e-01,-3.41326e-01,-4.00635e-01,-1.11269e+00,-6.90295e-02,-2.84218e-01,-4.55684e-01,5.04353e-01,7.86536e-01,4.12874e-01,3.56254e-01,-6.69957e-01,6.30118e-01,1.16006e-01,-2.56574e-01,-6.60924e-01,3.95889e-02,1.59321e-01,-5.29015e-01,
-6.82043e-01,-3.30345e-01,2.22718e-01,3.30840e-01,1.55606e-01,-2.98783e-01,-8.18083e-01,6.37433e-01,4.91063e-02,-6.86320e-01,5.07108e-01,4.21248e-01,1.21856e-01,9.69071e-02,1.82579e-01,-1.78260e-01,-7.45507e-01,-1.08535e+00,2.25685e-01,6.17880e-01,
-3.04906e-01,-8.23892e-01,4.72578e-01,8.05898e-01,4.92871e-01,2.90015e-01,1.12172e+00,3.73555e-02,-4.07123e-01,-2.75730e-01,-3.60300e-01,-4.76546e-01,8.59949e-01,2.78300e-02,-9.08663e-01,-1.61603e-01,-3.31170e-01,-1.98575e-01,6.26517e-01,4.84380e-01,
-1.37831e-01,6.60692e-01,-1.58394e-01,-5.58299e-01,7.44190e-02,9.28794e-02,-4.86879e-01,-2.54966e-01,1.95658e-01,-3.35927e-01,-2.19596e-01,-8.45082e-02,-8.86881e-01,1.57554e-01,4.97229e-01,-2.20141e-01,5.66532e-01,2.79785e-01,-1.13276e-01,4.41995e-01,
-8.71222e-03,5.43246e-01,-6.93291e-01,7.00086e-01,2.08543e-01,4.86265e-01,-2.86531e-01,4.44550e-01,-2.43132e-01,-1.07567e-01,-1.31182e+00,-1.05360e+00,4.96194e-01,3.83257e-01,4.04998e-01,-1.11441e-01,4.59341e-01,7.31591e-01,-6.90305e-01,-3.48983e-01,
2.41073e-02,8.39964e-01,-1.66947e-01,-2.55876e-01,3.77897e-01,-4.82759e-01,2.82524e-02,1.62624e-01,-9.65924e-02,-1.77435e-01,1.43690e-01,2.41228e-01,-1.29860e-01,-1.32191e-02,-1.97497e-01,7.78156e-01,5.66619e-01,6.23644e-01,3.75475e-01,-5.85956e-01,
-7.97913e-02,-1.61488e-01,2.09840e-01,6.93098e-01,-3.74491e-01,3.27941e-01,1.51931e-01,2.76404e-02,-5.99033e-02,7.64765e-01,2.56139e-01,-9.96775e-01,-1.93783e-01,5.89781e-01,2.01842e-01,-1.85145e-01,-2.85052e-01,3.22384e-01,-1.23837e-01,4.23706e-01,
9.38974e-01,-6.12860e-01,-1.43908e-01,-1.43143e-01,3.99099e-01,8.46428e-01,8.45519e-01,1.18798e-01,6.45237e-02,-3.30257e-02,4.38530e-01,2.77345e-01,3.13018e-01,-5.03679e-01,2.53458e-01,2.20597e-02,-3.74689e-01,-1.33377e-01,2.81644e-01,-1.03396e-01,
1.04041e-01,-1.55984e-01,-7.44242e-02,7.49049e-02,-6.53955e-02,-2.39477e-01,-2.20141e-01,-2.73285e-01,4.57038e-01,-8.51275e-01,1.08262e+00,1.26243e-01,-1.20235e+00,5.99243e-01,3.88664e-01,3.00851e-02,-5.14946e-01,-1.61174e-04,1.09405e-01,6.43044e-01,
5.87330e-02,2.28322e-01,5.66581e-01,1.30732e-01,-3.00345e-01,-3.42017e-02,1.73883e-01,4.66403e-01,3.33777e-01,-4.57895e-02,1.11122e+00,1.48223e-01,-5.65687e-01,-5.05813e-01,-2.26871e-01,-2.49009e-01,-5.65542e-01,3.70403e-01,-1.78460e-01,8.26090e-01,
-8.42864e-01,-1.25366e-01,6.57751e-02,1.20298e-01,2.02235e-01,-2.28998e-01,-3.09998e-01,2.20318e-01,-3.17569e-02,3.64155e-01,-1.40100e-01,2.02010e-01,-1.77647e-01,1.17980e+00,5.58489e-01,-5.08751e-01,1.57802e-01,-1.47152e-01,2.51035e-01,5.72830e-02,
-4.59912e-01,3.04997e-01,1.08640e-01,1.55275e-01,-1.40986e-01,-1.96807e-01,2.47091e-01,4.66902e-01,2.75825e-02,3.56067e-01,6.87446e-01,-1.63883e-02,8.26164e-01,1.43083e-02,-2.53014e-02,8.05196e-01,-3.04189e-02,5.12587e-02,6.78275e-01,-6.37286e-01,
2.56366e-02,
2.80438e-02,
5.05730e-01,
-1.61535e-01,
-1.17969e-01,
-8.87456e-02,
1.33336e-01,
7.38272e-01,
-4.97838e-01,
3.12400e-01,
-3.10207e-01,
5.92897e-01,
4.84314e-01,
-5.54258e-02,
-4.23289e-02,
3.56198e-01,
5.47155e-01,
-2.08153e-01,
-1.88165e-01,
4.32822e-03,
-1.17837e+00,7.66817e-01,9.12660e-01,9.82895e-02,3.48638e-01,-4.64031e-01,1.52773e-01,-6.14989e-02,-5.81095e-01,-4.56566e-01,-1.72389e-01,1.97774e-01,5.80811e-01,1.95063e-01,2.15278e-01,-1.67558e-03,4.45942e-03,-4.14496e-01,2.61235e-01,5.72610e-01,
-1.23321e-01,-3.08038e-01,2.90003e-01,1.36166e-01,-1.99048e-01,-1.45164e-02,-1.05937e-01,-4.00626e-01,-1.99522e-01,1.91266e-01,3.27157e-01,-2.33404e-01,8.02338e-02,-4.30201e-02,-1.71394e-01,3.43758e-01,-1.14393e-01,-3.40664e-01,-3.00553e-01,-2.43296e-01,
-8.12467e-01,5.12515e-01,-1.37785e+00,4.44643e-01,-5.85752e-02,-2.25416e-01,-3.12715e-01,-3.62542e-01,-4.62636e-01,-8.93186e-01,-8.38177e-01,2.09938e-01,6.35443e-01,2.55474e-01,-7.15493e-01,4.02922e-01,-5.11118e-01,-4.02081e-01,-5.11464e-01,-9.83317e-02,
1.54632e-01,5.53886e-01,-4.07880e-01,-5.08065e-01,-2.38524e-01,-6.22225e-01,4.78389e-01,4.54578e-01,-5.60066e-01,2.38613e-01,1.17320e-01,4.07332e-01,-4.37113e-01,-5.25958e-02,-4.15277e-01,5.04456e-01,3.58314e-01,-5.54931e-01,-7.29727e-01,-4.00420e-01,
-3.27880e-01,-2.44909e-01,3.67180e-01,-3.75882e-01,-1.57671e-01,1.90911e-01,-1.91921e-01,7.29100e-02,1.40882e-01,-1.04067e-01,-5.78461e-02,-5.87247e-02,-2.99885e-01,-2.48385e-01,-8.86762e-02,-2.91189e-01,1.92160e-01,-8.76041e-02,-2.36014e-01,4.26033e-02,
-1.98085e-01,1.57661e-02,1.72392e-01,-4.27923e-01,-1.24823e-01,8.15864e-01,9.56474e-02,-2.40925e-01,1.00397e-01,1.05168e+00,3.78409e-01,-8.92619e-02,3.16647e-01,-2.34808e-01,2.16476e-01,-1.18691e-01,2.43215e-02,-9.50034e-01,3.31330e-01,-1.83216e-02,
-1.09480e-01,1.19816e-01,4.19961e-01,-1.05245e-01,1.62416e-01,-2.30512e-01,-2.29767e-01,-1.78744e-01,-1.94762e-02,-7.70450e-02,-6.10711e-02,-4.37552e-02,4.63224e-01,4.92668e-01,-4.87437e-01,-6.96296e-02,-4.29354e-01,-3.41600e-01,3.90476e-01,-2.10667e-01,
-7.16305e-01,-1.17832e-01,8.68738e-01,3.99389e-02,9.06671e-01,-3.43704e-01,-2.92038e-01,3.21681e-01,-4.60099e-01,-4.69157e-01,-6.77851e-02,6.39292e-01,7.71664e-02,3.74628e-01,-1.95591e-01,8.51428e-02,3.74631e-01,1.07965e-01,-2.59984e-01,1.48169e-01,
2.37827e-01,-1.26121e-01,-1.03188e+00,8.65256e-01,-7.83363e-01,-7.36141e-01,4.83019e-01,3.87697e-01,-5.28285e-02,2.20472e-02,5.25192e-01,-2.01407e-01,-1.52672e-01,-6.16594e-01,-1.36313e-01,1.14863e-01,3.04534e-01,6.73433e-01,-1.03679e-01,4.20606e-01,
-1.57875e-01,-1.95996e-01,7.38541e-01,7.12187e-01,-2.45950e-01,-1.61665e-01,1.46509e-01,3.06309e-01,-2.74400e-01,2.67160e-01,1.63018e-01,3.12581e-02,5.06437e-01,-1.07147e+00,1.40357e-01,-4.69210e-01,-1.28133e-01,4.94325e-01,-7.75287e-01,2.07501e-02,
-7.81165e-01,1.49083e-01,8.41814e-01,-2.45837e-01,2.41053e-02,1.95144e-01,-9.94517e-03,1.88433e-01,-5.90550e-01,4.40969e-01,4.88711e-01,-1.61486e-01,-3.20891e-01,-4.72804e-01,1.63397e-01,7.33845e-02,3.46304e-01,4.64600e-01,1.34535e-01,-3.74841e-01,
-6.44732e-01,6.24942e-01,9.00046e-01,-2.41347e-01,4.45446e-01,5.93469e-01,-2.20831e-01,-2.13028e-01,-7.84053e-01,4.80814e-01,-1.28476e+00,1.97788e-01,2.39653e-02,3.91189e-02,4.68502e-01,-5.86587e-01,3.64795e-01,1.49953e-01,1.02911e-03,-5.53865e-03,
-2.80610e-01,2.33988e-01,-1.11750e+00,2.91388e-01,-2.90912e-01,-1.60711e-01,-2.48925e-01,-4.10907e-02,-7.63269e-01,9.27184e-01,-4.29765e-01,2.39641e-01,1.19766e-01,1.57667e-01,-1.76144e-01,-6.95546e-01,-1.72670e-01,3.67709e-01,4.14761e-01,-3.92417e-01,
-6.22204e-01,1.38053e-01,-8.03815e-01,1.92640e-01,-3.25012e-01,2.74723e-01,-3.01882e-01,-4.68365e-01,-1.79321e-01,-1.74955e-01,-4.69930e-01,2.63082e-01,2.09047e-02,-8.27288e-02,2.07782e-01,-1.39769e-01,-8.01752e-01,1.83231e-01,-5.55116e-02,1.60675e-02,
2.61604e-01,-2.10462e-01,7.99623e-01,4.44643e-01,2.35280e-01,8.46026e-01,8.48417e-03,7.97439e-03,-2.29263e-01,-4.93270e-01,4.34810e-01,-4.72865e-01,4.63375e-01,-5.96858e-01,4.98074e-01,3.15616e-01,2.96691e-01,-1.92951e-01,4.69068e-01,3.25462e-02,
5.04655e-01,2.39862e-01,2.91282e-01,-1.22849e+00,6.14287e-01,7.17248e-01,2.72786e-01,2.58575e-01,1.00496e+00,5.52253e-01,9.46164e-02,3.74785e-02,-3.37847e-01,3.31892e-02,2.62534e-01,5.65715e-02,5.38636e-02,5.04749e-02,3.86977e-01,-3.18886e-01,
-5.44663e-01,1.12179e-01,3.57182e-01,4.54825e-01,-1.02966e+00,-9.10887e-02,2.17203e-01,3.14380e-01,-3.01119e-01,-8.05605e-02,-3.86905e-02,3.79278e-01,9.60151e-01,3.59948e-01,-9.08138e-01,-9.01616e-02,-2.39009e-01,-9.69234e-01,1.99051e-01,-2.52111e-01,
3.63121e-01,1.67511e-02,-1.52479e+00,1.33446e-01,4.19248e-01,3.33708e-01,-4.68350e-01,5.19012e-01,6.70746e-01,3.42550e-01,1.00775e-01,-5.90175e-01,-1.50553e+00,4.47586e-01,-3.15800e-01,8.07398e-01,5.86102e-01,7.22096e-01,-2.05703e-01,4.87030e-01,
-1.62108e-01,3.39564e-01,-1.28699e+00,1.74834e-01,8.08460e-01,1.09438e+00,-1.67765e-01,-6.49150e-02,1.13025e+00,9.06771e-01,5.54349e-01,-1.04753e+00,-1.75214e-01,3.74851e-01,-6.14479e-02,3.06089e-01,-7.24446e-01,8.38223e-01,-1.24815e-01,2.81504e-01,
1.44889e-01,-3.37856e-01,-8.62093e-04,3.62504e-02,3.57090e-01,-7.81674e-02,2.44457e-01,-2.05729e-01,-2.14526e-01,-8.60830e-02,-5.38334e-01,4.46893e-01,-1.84934e-01,1.20927e-01,-9.69439e-01,-1.74090e-01,7.11229e-02,-3.69910e-01,5.16676e-01,-3.20262e-01,
4.21899e-01,
-2.04861e-01,
-2.34635e-03,
9.87725e-02,
-2.24044e-01,
3.49059e-01,
-6.06305e-02,
4.20658e-01,
8.05758e-02,
4.93045e-01,
-2.28619e-01,
1.18582e-01,
-5.06570e-02,
-7.67900e-02,
-9.95403e-02,
7.84411e-02,
6.13885e-01,
-1.15183e-01,
-2.54254e-01,
-1.16154e-01,
-5.09944e-01,3.62510e-01,1.01929e+00,5.39963e-01,-3.02506e-01,1.62245e-01,4.47766e-01,-2.71477e-03,2.66864e-01,-3.03778e-01,2.18274e-01,-3.74722e-01,8.97027e-01,-4.82132e-02,-9.86888e-02,-1.45120e-01,-3.14836e+00,6.51692e-01,-2.27370e-01,-2.40035e-01,
5.51235e-01,1.05083e-01,4.26602e-01,4.79490e-01,2.32329e-01,-5.51667e-01,-1.50635e-01,3.51033e-01,2.62613e-01,-1.24736e-01,-1.56389e-01,1.67399e+00,7.54999e-01,-9.07454e-01,-1.35712e-01,2.31171e-01,-1.22870e+00,-3.34348e-01,-1.61652e+00,3.62241e-01,
5.12614e-01,8.50160e-02,3.41064e-01,-1.79922e-01,9.37255e-02,8.40338e-02,1.06850e-01,-1.37349e-02,2.54394e-01,3.88606e-01,9.67209e-01,-8.81230e-02,-7.17531e-01,4.37893e-01,2.90430e-01,-1.63968e-02,3.77490e-01,5.42867e-03,9.79129e-02,-6.98987e-01,
3.95231e-01,1.96476e-01,1.07358e-01,1.12764e-01,-2.02268e-01,5.82419e-01,-2.01913e-01,6.73496e-01,-7.97451e-01,-2.23523e-01,-9.80924e-03,3.02199e-01,-6.08087e-01,-7.15501e-01,-7.79033e-01,4.24827e-01,-4.11766e-01,-8.62774e-02,6.31911e-02,-5.67541e-01,
5.02851e-02,-8.93369e-02,9.04473e-01,6.01084e-03,-7.07865e-04,-4.18793e-01,9.44077e-01,-1.28410e-01,3.31623e-01,1.88050e-02,-9.52263e-01,5.57052e-01,7.74110e-01,5.56021e-01,5.23604e-01,-9.22480e-03,6.81393e-01,-6.10287e-03,-2.14077e-01,6.88916e-01,
-7.06955e-01,-1.26299e-01,1.48034e-01,-1.88176e-01,1.99998e-01,8.86470e-01,-9.39967e-02,-5.11321e-01,1.88938e-02,-5.34547e-01,4.42482e-01,8.97055e-01,-9.34430e-01,-4.59711e-01,5.10202e-01,4.65347e-01,-1.20929e+00,6.23332e-01,-1.45950e-01,8.63180e-02,
-4.72881e-01,3.17712e-01,7.56162e-02,2.01794e-01,-2.94835e-01,2.09054e-01,5.27466e-01,1.98595e-01,8.75612e-01,4.19866e-01,7.36650e-02,-2.42512e+00,-1.00449e-01,-1.73330e-01,-3.14876e-02,3.06643e-01,3.68747e-01,2.73460e-01,4.33253e-02,2.16720e-01,
-1.36124e-01,-2.12175e-01,1.34992e+00,4.13907e-01,2.70041e-01,-3.19355e-01,2.03063e-01,3.05309e-01,-2.07369e-01,5.05596e-01,4.48728e-01,-2.85961e-02,4.13091e-01,9.34817e-01,-1.91710e+00,-1.55974e-01,5.10126e-01,-3.51782e-01,-6.96881e-01,1.47544e-01,
4.16825e-01,-1.99060e-01,1.00321e+00,4.48114e-01,-2.24834e-01,-3.49380e-01,2.66712e-01,4.74782e-01,-1.86701e-01,1.59495e-01,-5.52602e-01,-1.32894e+00,-7.01577e-03,-1.10274e-01,-2.71263e-01,-5.35014e-02,1.19648e+00,-2.08353e-01,4.52342e-01,1.39034e-01,
4.29110e-02,-3.32679e-01,1.72360e+00,6.04720e-01,-1.28386e-01,-4.96002e-01,4.29977e-01,1.03329e-01,-3.43248e-01,-9.44299e-01,-2.48227e-01,4.15613e-02,4.26624e-02,6.62186e-03,9.69135e-03,3.99009e-01,8.40809e-01,7.61217e-01,-3.15585e-01,-1.18958e-02,
1.37972e-01,-1.26252e-01,9.94965e-01,1.84099e-03,-2.16366e-01,-4.30900e-01,6.51283e-01,-1.22145e-01,3.79040e-01,5.42784e-02,-1.24844e-01,-1.39027e+00,-2.14710e-01,-3.49836e-01,-4.81480e-01,2.63693e-01,7.05154e-01,3.86548e-01,2.00511e-01,1.50494e-01,
6.48808e-01,-1.39893e-02,1.60270e-02,-7.34316e-01,-7.77490e-02,-5.84349e-01,1.17551e-01,5.76720e-01,1.43885e-01,3.37747e-01,-1.29641e-01,2.87621e-02,9.29303e-01,6.96300e-01,1.11378e-01,-4.70693e-01,-1.59027e-01,2.86564e-01,2.36278e-01,-2.17069e-01,
-2.20285e-02,5.62505e-02,-1.65408e-01,-2.99682e-01,-2.13872e-01,-1.66829e-01,1.01754e-01,-1.42400e-01,-2.52305e-01,6.22057e-02,-2.78122e-01,3.71818e-02,-1.27006e-01,-5.89437e-02,6.07471e-02,-3.56597e-01,-2.39674e-01,-1.96764e-01,4.55445e-03,3.86528e-01,
5.38348e-01,-1.95351e-01,1.42071e-01,-3.76627e-01,3.02659e-01,-5.33988e-01,-1.89130e-01,6.35312e-01,-3.13918e-01,1.93541e-02,5.72817e-01,1.92501e+00,6.42838e-01,-3.78515e-01,1.60750e-01,-3.55867e-01,-4.33495e-01,-3.63715e-01,2.23741e-01,-1.07844e+00,
-1.56429e-01,3.12307e-01,-3.28919e-02,-6.42306e-01,-3.45124e-01,-1.38529e-01,6.01503e-02,-3.81746e-01,-5.21508e-02,-2.29040e-01,3.62986e-01,-6.75250e-01,1.77086e-01,-4.22782e-01,1.20341e-01,-3.05819e-01,1.22506e-01,-8.36712e-02,1.80878e-01,8.11464e-01,
3.34471e-01,3.18183e-01,-7.18653e-01,-8.64270e-01,-2.92159e-01,5.77281e-01,7.64863e-02,-1.98242e-01,-3.25148e-01,-1.74594e-01,5.19074e-01,1.70919e+00,-1.46615e+00,2.41142e-01,3.25188e-01,1.70514e-01,-1.17849e+00,3.99658e-01,-3.49176e-01,-5.49364e-01,
7.56506e-01,8.53483e-02,-1.63484e+00,-7.66253e-01,1.06441e-01,5.80038e-01,2.08436e-02,2.07264e-01,-3.37265e-01,-1.67741e-01,6.72555e-01,3.74202e-01,-1.08572e+00,-2.58943e-01,-3.62448e-01,4.75141e-01,-4.55364e-01,4.84022e-01,2.66526e-01,-6.22825e-03,
-8.11516e-01,1.81101e-01,5.56552e-01,4.10136e-01,-1.64278e-01,5.29477e-01,8.31992e-01,-3.01835e-01,6.16215e-01,2.63009e-01,-2.53449e-01,-1.79333e+00,2.53647e-01,7.97081e-01,-1.61619e-01,-2.18619e-01,8.01610e-01,1.58264e-01,6.23215e-01,-1.80405e-01,
1.02536e+00,1.39613e-01,2.11235e-01,4.75780e-02,-2.32093e-01,-1.39947e-02,-4.98310e-01,3.96213e-01,2.73851e-02,-1.57732e-01,-5.48511e-02,1.56951e+00,1.18374e-01,9.51862e-02,-1.32905e-01,1.50884e-01,6.43599e-01,3.55719e-01,-2.79894e-01,-6.49812e-01,
4.93281e-01,1.12623e-01,-8.32369e-01,2.12131e-01,3.37491e-01,1.25396e-01,1.31179e-01,-4.93376e-02,-1.60802e-01,1.88322e-01,2.03031e-01,1.47767e+00,-1.07630e+00,3.50450e-01,8.16947e-02,5.53618e-01,-3.62480e-01,-1.11598e-01,-7.32051e-02,-1.91496e-01,
8.39626e-02,
4.92696e-01,
-3.24085e-01,
4.09048e-01,
1.90832e-01,
-3.53559e-01,
2.16967e-02,
3.32286e-01,
6.92683e-01,
-4.06434e-01,
6.08291e-01,
4.26341e-01,
1.55112e-01,
-4.67783e-02,
-5.01323e-01,
-2.61460e-02,
2.60960e-01,
6.11989e-02,
3.68057e-01,
3.72679e-01,
-1.29742e+00,2.64802e-01,-2.50044e-01,7.57775e-02,6.66788e-01,-2.22754e-01,8.01483e-02,1.10404e+00,3.26044e-01,1.07667e+00,2.36665e-01,6.19337e-01,6.95398e-02,6.42998e-01,-1.54627e+00,-3.93430e-01,6.15565e-02,-9.28829e-02,-2.07015e-01,2.78639e-01,
-6.75432e-01,8.51028e-01,-5.79347e-01,-3.31468e-01,6.84251e-01,-3.08520e-02,2.47053e-01,8.85052e-01,3.31866e-01,1.06790e+00,5.32471e-01,-1.50197e-01,3.25300e-01,2.20095e-01,-1.79201e+00,-5.51807e-01,-5.00329e-01,1.49198e-01,1.91643e-01,4.65339e-01,
9.45726e-02,1.65165e+00,-4.48682e-01,-4.49230e-01,5.44362e-01,-8.62289e-02,3.56909e-01,5.55133e-01,1.04193e-01,9.06460e-01,-8.28173e-02,6.19461e-01,3.73313e-01,5.29772e-01,7.88005e-01,-1.70960e-01,-2.70395e-01,-2.61613e-01,5.73520e-01,-2.57576e-01,
-1.90035e+00,-1.75814e-01,-1.36677e+00,4.73959e-01,2.48431e-02,-8.38106e-01,2.80633e-01,4.85097e-01,1.07976e+00,-2.97341e-01,6.65154e-01,-5.34883e-01,-5.76376e-02,-3.50630e-01,-1.04406e-01,-3.23603e-01,-4.80446e-01,8.26973e-01,-1.84458e+00,-4.62076e-01,
2.90647e-01,-8.69079e-01,3.08053e-01,1.41616e-01,-1.66779e-01,3.04862e-01,4.73594e-01,-3.27059e-01,5.67379e-01,-3.20325e-01,5.07263e-01,-1.05513e-01,2.56764e-01,-8.23664e-01,-1.51114e+00,1.00029e-01,7.49884e-02,4.11991e-01,-9.56973e-01,6.42036e-02,
-8.94307e-01,1.35479e-02,-7.44768e-01,7.04680e-01,-3.28407e-01,7.86658e-02,-9.57373e-01,-4.51563e-01,-1.28784e-01,1.78103e-01,-4.42714e-01,-5.41549e-02,-2.37696e-01,7.47330e-01,1.80816e-01,1.25730e+00,1.41025e-01,-1.07090e+00,1.03944e+00,6.05482e-01,
4.46001e-01,4.28699e-01,-7.16875e-01,4.43399e-01,3.13778e-01,4.26405e-01,-3.25199e-01,-1.82973e+00,-6.50502e-01,3.73261e-01,-4.15189e-01,-5.42183e-01,-1.98242e-01,-2.46916e-02,1.62429e+00,1.26462e-01,4.01482e-01,-1.92789e-01,8.29950e-01,4.98839e-01,
8.76675e-01,4.38628e-01,-7.93852e-02,-9.83458e-02,-9.47051e-02,3.93581e-01,-2.02574e-01,3.29319e-01,-4.63124e-01,-8.64521e-01,-2.94899e-01,1.06779e+00,9.78420e-02,4.70459e-01,1.64383e+00,4.62418e-01,2.25534e-02,-1.00609e-01,8.46559e-01,-4.29037e-01,
3.51856e-01,-1.41651e-01,1.40279e-01,1.46577e-01,-1.64595e-02,2.48171e-01,6.44797e-01,-2.07398e+00,-4.33014e-01,-1.00283e+00,-7.41110e-02,-5.47531e-01,-6.20200e-02,-1.11088e+00,1.30937e+00,4.17775e-01,3.07652e-01,-2.11522e-01,4.70548e-03,2.56412e-01,
7.94644e-02,-6.41524e-01,-1.56589e-02,-4.04911e-01,4.24067e-02,-1.22555e-01,-8.75911e-02,-1.43666e-01,3.88010e-01,-2.36744e-01,1.49963e-01,-2.40247e-01,-2.17505e-01,1.89124e-01,1.93453e-01,-1.04500e-01,5.47149e-01,2.85675e-01,3.21739e-01,-2.85296e-04,
1.02530e+00,-7.58565e-01,4.81459e-01,6.27174e-01,-5.52400e-01,5.13412e-01,4.10402e-01,-4.14596e-01,-1.99346e-01,-1.63465e+00,-2.40828e-01,2.77358e-01,-6.02168e-02,3.86718e-01,1.38560e+00,5.28717e-01,4.03236e-01,4.01600e-01,6.38864e-01,3.52629e-01,
-7.46499e-01,6.58597e-01,1.55845e-01,-1.46505e-01,2.34684e-01,-7.65617e-01,-1.61271e-02,-2.78185e-01,-7.36081e-01,-7.28488e-01,-6.78073e-02,-1.10348e-02,-2.51555e-01,3.10428e-01,-1.56020e-01,-2.99693e-01,-1.71696e-01,3.10029e-01,-3.10537e-01,5.34395e-03,
6.90508e-01,4.30445e-01,1.26840e-01,1.37779e-01,3.39809e-01,2.12350e-01,-1.21215e-01,3.77457e-01,-6.45454e-01,-1.31444e+00,-3.58482e-01,4.14377e-02,-2.69385e-01,9.52379e-01,1.54440e+00,5.41649e-02,2.64213e-01,1.50570e-01,2.96566e-02,2.92835e-01,
4.82536e-01,-1.05283e+00,-1.00880e-01,4.92361e-01,4.92582e-01,1.70909e-01,1.67663e-01,1.07279e-01,7.13463e-01,-7.48588e-01,1.84101e-02,8.06715e-02,-3.54362e-01,-1.07088e+00,-1.03774e+00,3.83173e-01,5.44273e-01,7.72156e-03,-7.37157e-01,4.40808e-01,
-1.41378e-01,5.78465e-01,4.01639e-01,-8.61781e-01,9.43514e-02,5.81397e-01,1.24460e-01,4.57299e-01,2.05307e-01,1.40627e-01,-1.04670e-01,5.78330e-01,3.36475e-01,1.14655e-01,-1.64210e+00,1.40108e-01,4.96127e-01,-1.59316e-03,3.07110e-01,-3.32048e-01,
-2.04674e-01,-9.48702e-01,3.24886e-01,1.45551e-02,1.11127e-02,1.23349e-02,-1.00656e-01,8.28941e-01,2.41853e-01,1.34854e-01,-7.17700e-02,7.28469e-01,-1.91984e-02,-2.98852e-01,-1.11946e+00,2.55028e-01,-2.57710e-01,3.14576e-01,-1.34441e+00,-6.96854e-02,
-3.69654e-01,-1.60499e+00,5.78298e-01,-4.67961e-01,3.03668e-02,-3.77048e-01,2.42034e-01,2.18461e-01,-1.63951e-01,-5.29945e-02,1.65819e-02,5.80240e-01,3.01545e-01,-1.24909e+00,-1.34668e+00,-1.74561e-01,3.56078e-01,-7.24812e-02,-1.36397e-01,-1.14990e+00,
8.43165e-02,-1.70564e+00,-6.68527e-02,4.11726e-02,-3.79012e-01,4.73292e-01,-2.01945e-01,7.75180e-01,5.48251e-01,4.49134e-01,4.95097e-01,4.35998e-01,-1.94585e-01,-1.01250e+00,-1.44866e+00,9.83181e-03,2.26981e-01,3.55193e-01,-1.31605e+00,8.10740e-02,
-2.03990e+00,5.74725e-01,-1.28111e+00,5.73579e-01,2.70063e-01,-5.02240e-01,-6.20979e-01,-5.67042e-02,2.52404e-02,8.18849e-01,-1.14013e-02,-4.12404e-02,-3.54883e-01,4.03519e-01,1.71854e-01,9.27598e-01,7.88174e-01,-1.24289e+00,7.30909e-01,7.07315e-01,
-1.47196e+00,9.92398e-01,-8.31039e-01,2.89522e-01,-2.47949e-01,-2.65297e-03,-7.62992e-01,2.65799e-01,-1.76320e-01,2.68976e-01,-1.16234e-01,9.15740e-01,-1.34143e-02,7.94682e-01,1.69221e-01,1.19942e+00,3.69692e-01,-1.44197e+00,1.31279e+00,6.87752e-01,
3.30012e-01,
2.21350e-01,
2.26886e-01,
6.80577e-01,
1.84118e-01,
-2.80335e-01,
3.07781e-01,
2.35209e-01,
2.81629e-02,
4.03185e-03,
-2.01837e-01,
5.51446e-01,
2.43337e-01,
5.07961e-01,
-1.28212e-01,
-1.63701e-01,
-1.71968e-01,
-2.09572e-01,
2.18782e-01,
-2.29771e-02,
3.77969e-02,-1.70205e-01,-1.42964e-01,3.14923e+00,2.67904e-01,-3.02281e+00,-8.49969e-01,1.45515e-01,-2.61358e-02,-5.47362e-01,-1.16639e-01,-2.69097e-01,-5.85113e-01,4.62152e-01,3.26474e-01,6.13971e-01,6.41612e-01,7.13695e-01,-1.03053e+00,-1.57171e+00,
6.06366e-01,7.33484e-01,9.89109e-01,8.27474e-02,-6.37541e-01,-3.48694e-01,-1.01164e+00,-3.37134e-01,-1.79320e+00,8.97316e-01,-9.60954e-01,1.29129e+00,-9.14544e-01,-9.61342e-01,-2.31816e-02,3.20781e-01,-5.78697e-01,4.74317e-01,4.43386e-01,6.32504e-01,
3.60466e-01,6.29892e-01,-1.98346e-01,4.34966e+00,8.27685e-01,5.09475e-01,3.03021e-01,-9.28871e-01,8.11479e-01,6.12807e-01,-5.39252e-01,-6.37938e-02,-1.30971e+00,8.40710e-01,-1.40325e+00,3.61549e-02,-1.32757e+00,2.16708e-01,1.90464e+00,-7.54448e-01,
4.98987e-01,
8.61065e-01,
1.81238e-01,
